svm_type epsilon_svr
kernel_type linear
nr_class 2
total_sv 140
rho -0.368905
SV
15 1:-0.935484 2:0.20646 3:-0.832198 4:-0.915658 5:-0.978388 6:-0.256134 7:-0.169667 8:-0.518844 9:-0.605821 10:0.379676 11:-0.482881 12:0.199311 13:0.131214 14:-0.100584 15:-1 
15 1:-0.709677 2:-0.40783 3:-0.103171 4:-0.599207 5:-0.54517 6:-0.524986 7:-0.521762 8:-0.446495 9:-0.755852 10:0.500467 11:-0.81157 12:-0.23961 13:-0.640788 14:-0.813108 15:-0.632981 
-3.126716943311996 1:0.822581 2:-0.0729232 3:0.816537 4:0.365641 5:0.228348 6:-0.650218 7:0.361967 8:-0.492596 9:-0.930669 10:-0.426416 11:-0.860685 12:-0.13584 13:-0.0378764 14:-0.477872 15:0.188202 
15 1:-0.483871 2:-1 3:-0.52768 4:-0.643755 5:-0.543938 6:-0.456601 7:-0.831201 8:-0.184462 9:-0.781944 10:0.219701 11:-0.578512 12:-0.503909 13:-1 14:-0.767424 15:-0.490799 
15 1:-0.483871 2:-0.38164 3:-0.575417 4:-0.718523 5:-0.611634 6:-0.176048 7:-0.735161 8:-0.376299 9:-0.761443 10:-0.0832902 11:-0.68595 12:-0.334083 13:-0.71788 14:-0.844257 15:-0.592509 
6.358163862953704 1:0.822581 2:-0.895943 3:0.590182 4:-0.0731065 5:-0.0918267 6:0.531166 7:-0.366762 8:0.416625 9:-0.666943 10:0.341945 11:-0.716003 12:-0.415541 13:-0.796457 14:-0.730045 15:0.594101 
15 1:-0.354839 2:-0.358374 3:-0.0360434 4:-0.384695 5:-0.200848 6:-0.608412 7:0.268692 8:0.0536918 9:-0.876026 10:0.0292963 11:-0.911846 12:0.0637512 13:-0.425972 14:-0.333865 15:-0.247863 
15 1:-0.677419 2:-0.290369 3:-0.584612 4:-0.699545 5:-0.542178 6:-0.754518 7:-0.642065 8:-0.309164 9:-0.724355 10:-0.868728 11:-0.719008 12:-0.225255 13:-0.335881 14:-0.696301 15:-0.701257 
15 1:-0.290323 2:-0.338265 3:-0.429116 4:-0.682645 5:-0.53885 6:0.407181 7:-0.705551 8:0.243833 9:-0.736282 10:0.679347 11:-0.771901 12:-0.102239 13:-0.291418 14:-0.770835 15:0.223395 
-15 1:-0.483871 2:0.269272 3:-0.427643 4:-0.691607 5:-0.40109 6:-0.0433408 7:0.340528 8:-0.147934 9:-0.86022 10:0.564435 11:-0.966942 12:-0.157358 13:0.620268 14:-0.819783 15:-0.264622 
15 1:-0.903226 2:0.183616 3:0.0139852 4:-0.498447 5:-0.423253 6:-0.198053 7:-0.258677 8:-0.428053 9:-0.717645 10:-0.0386876 11:-0.785124 12:0.0381893 13:0.0925008 14:-0.563141 15:-0.940339 
-15 1:-0.693548 2:-0.360467 3:0.426627 4:-0.346093 5:-0.290803 6:-0.678994 7:-0.86738 8:-0.497138 9:-0.889574 10:-0.190684 11:-0.884298 12:-0.0907983 13:-0.370954 14:-0.735237 15:-0.679906 
-15 1:-0.193548 2:-0.976804 3:-0.0216691 4:-0.573087 5:-0.567185 6:-0.383075 7:-0.939053 8:-0.424006 9:-0.747838 10:0.337017 11:-0.666116 12:-0.440512 13:-0.919692 14:-0.762492 15:0.230434 
15 1:-0.677419 2:-0.38342 3:0.0503305 4:-0.485156 5:-0.197383 6:-0.320593 7:-0.365163 8:-0.243318 9:-0.834869 10:-0.0881731 11:-0.786068 12:-0.176088 13:-0.557535 14:-0.761194 15:-0.520362 
-15 1:-0.435484 2:-0.486169 3:0.951591 4:-0.219691 5:-0.176954 6:-0.897711 7:-0.917749 8:-0.567798 9:-0.802047 10:-0.339485 11:-0.85974 12:0.0559547 13:-0.43897 14:-0.696301 15:-0.0552204 
-15 1:-0.387097 2:-0.0880148 3:-0.657799 4:-0.796317 5:-0.520708 6:-0.130539 7:-0.0179108 8:-0.372058 9:-0.661733 10:0.490531 11:-0.789417 12:0.43123 13:-0.320783 14:-0.694354 15:-0.140271 
15 1:-0.435484 2:-0.816544 3:-0.475284 4:-0.579276 5:-0.476577 6:-0.502654 7:-0.371352 8:-0.00974998 9:-0.867082 10:0.462777 11:-0.867017 12:-0.315519 13:-0.708693 14:-0.38793 15:0.353142 
15 1:-0.483871 2:-0.81494 3:-0.145887 4:-0.413527 5:-0.335712 6:-0.461367 7:-0.8273 8:-0.313121 9:-0.721457 10:0.113519 11:-0.672727 12:-0.460086 13:-0.84138 14:-0.857884 15:0.0584762 
15 1:0.274194 2:-0.862474 3:0.576298 4:-0.0927453 5:0.0183839 6:0.175096 7:-0.51252 8:-0.208371 9:-0.889574 10:-1 11:-0.873278 12:-0.00675367 13:-0.641123 14:-0.719663 15:-0.282453 
15 1:-0.741935 2:-0.451507 3:-0.641221 4:-0.818914 5:-0.594969 6:-0.605877 7:-0.225502 8:-0.161145 9:-0.742805 10:-0.44059 11:-0.895317 12:0.319353 13:-0.209761 14:-0.622879 15:-0.394447 
15 1:0.016129 2:0.00545865 3:-0.0447718 4:-0.362575 5:-0.143654 6:-0.253035 7:0.134678 8:0.180782 9:-0.791728 10:0.67052 11:-0.801653 12:0.257213 13:-0.122025 14:-0.174562 15:0.116642 
15 1:-0.758065 2:-0.118838 3:-0.291818 4:-0.618606 5:-0.540374 6:-0.115608 7:-0.351252 8:-0.526552 9:-0.674966 10:-0.209205 11:-0.859504 12:-0.0454631 13:-0.172435 14:-0.46074 15:0.0990447 
-15 1:-0.435484 2:-0.716117 3:-0.41759 4:-0.649939 5:-0.571647 6:-0.41709 7:-0.173819 8:-0.105364 9:-0.739544 10:0.131521 11:-0.652893 12:-0.341877 13:-0.571224 14:-0.859831 15:0.223395 
15 1:-1 2:-0.307984 3:-0.98407 4:-1 5:-1 6:0.306375 7:-0.532524 8:-0.549715 9:-0.888002 10:-0.514359 11:-0.830597 12:-0.255437 13:-0.153541 14:-0.906035 15:-0.996648 
15 1:-0.467742 2:-0.602788 3:0.0835026 4:-0.396418 5:-0.394749 6:-0.764849 7:-0.372644 8:-0.0362075 9:-0.736282 10:-0.908001 11:-0.752066 12:-0.259277 13:-0.611767 14:-0.618949 15:-0.460533 
-15 1:0.870968 2:0.467658 3:0.366264 4:0.323068 5:0.58659 6:-0.0396893 7:0.351367 8:-0.129805 9:-0.992312 10:0.374081 11:-0.933884 12:0.278414 13:0.660649 14:-0.903439 15:0.465058 
-15 1:-0.83871 2:-0.00399153 3:-0.650233 4:-0.802527 5:-0.726023 6:0.312676 7:-1 8:-0.525018 9:-0.547114 10:0.597397 11:-0.630854 12:-0.125783 13:-0.204353 14:-0.848151 15:-0.486733 
-15 1:0.677419 2:0.264468 3:0.559115 4:0.884272 5:1 6:-0.678652 7:1 8:-0.206737 9:-0.588698 10:0.127752 11:-0.561983 12:0.390811 13:0.097555 14:1 15:0.108765 
15 1:-0.451613 2:-0.0651352 3:-0.951736 4:-0.933887 5:-0.883582 6:-0.292679 7:-0.892099 8:0.0128275 9:-0.707581 10:0.192506 11:-0.573554 12:-0.191916 13:0.140204 14:-0.809215 15:-0.349087 
15 1:-0.645161 2:0.155818 3:-0.594198 4:-0.752867 5:-0.623182 6:-0.875771 7:-0.92935 8:-0.431225 9:-0.817168 10:-0.137318 11:-0.879575 12:0.0386139 13:-0.242898 14:-0.864787 15:-0.561187 
15 1:-0.451613 2:-0.127925 3:-0.493078 4:-0.788445 5:-0.728636 6:-0.385219 7:-0.499188 8:-0.352599 9:-0.767267 10:0.166264 11:-0.800236 12:0.0703242 13:0.0531483 14:-0.67294 15:-0.435897 
-15 1:-0.516129 2:0.0379768 3:-0.932058 4:-0.946224 5:-0.946218 6:-0.224019 7:0.167381 8:-0.0510149 9:-0.726032 10:-0.561976 11:-0.540496 12:0.115306 13:0.401198 14:-0.705127 15:-0.277526 
-15 1:0.451613 2:0.29374 3:0.660263 4:-0.0683966 5:0.111929 6:0.0222567 7:0.344518 8:-0.671232 9:-0.939475 10:0.384733 11:-0.829201 12:0.46572 13:0.31102 14:-0.852643 15:0.482655 
14.98937564683546 1:0.0645161 2:-0.500893 3:-0.399799 4:-0.659355 5:-0.574041 6:-0.592916 7:0.229375 8:0.430749 9:-0.568208 10:1 11:-0.520661 12:-0.254998 13:-0.453677 14:-0.626217 15:0.042735 
15 1:-0.741935 2:0.0714498 3:-0.569569 4:-0.956064 5:-0.915317 6:0.269518 7:0.311853 8:-0.165265 9:-0.507976 10:-0.385612 11:-0.628099 12:-0.119706 13:0.0312149 14:-0.627051 15:-0.631976 
15 1:0.177419 2:0.0447571 3:-0.762238 4:-0.886164 5:-0.863956 6:-0.0600364 7:-0.0699515 8:-0.277106 9:-0.700872 10:0.585269 11:-0.464463 12:0.0986555 13:0.255039 14:-0.573653 15:0.201106 
-1.189525927929514 1:-0.290323 2:0.00197286 3:-0.841859 4:-0.955335 5:-0.963115 6:-0.297516 7:0.178947 8:0.672233 9:-0.640067 10:0.581026 11:-0.446531 12:0.0959749 13:0.0568628 14:-0.602855 15:-0.0745768 
-15 1:-0.645161 2:0.322354 3:-0.510774 4:-0.811883 5:-0.771994 6:0.0342556 7:0.0874475 8:0.0693863 9:-0.674313 10:0.56454 11:-0.571751 12:0.108634 13:0.225114 14:-0.591175 15:-0.578482 
-15 1:0.0645161 2:-0.297561 3:-0.279196 4:-0.774737 5:-0.641875 6:-0.502812 7:0.190522 8:0.530691 9:-0.706113 10:0.346217 11:-0.603306 12:0.120179 13:-0.0597815 14:-0.621544 15:0.439718 
-15 1:-0.274194 2:0.0541299 3:-0.377894 4:-0.665728 5:-0.431789 6:-0.290815 7:0.0591719 8:0.0152842 9:-0.830867 10:0.133547 11:-0.710744 12:0.372386 13:-0.316369 14:-0.551683 15:-0.332076 
-15 1:-0.645161 2:0.256986 3:-0.70244 4:-0.861308 5:-0.775318 6:-0.228279 7:0.0149121 8:-0.123093 9:-0.681133 10:0.187638 11:-0.613223 12:0.314425 13:0.434108 14:-0.713822 15:-0.509804 
-15 1:-0.258065 2:0.29677 3:-0.475953 4:-0.688244 5:-0.454354 6:-0.132337 7:0.467036 8:-0.430678 9:-0.95139 10:0.188471 11:-0.69697 12:-0.720041 13:0.380158 14:-0.776898 15:-0.192529 
15 1:-0.274194 2:-0.315671 3:-0.821933 4:-0.935227 5:-0.912203 6:0.225176 7:0.23334 8:1 9:-0.658938 10:0.721933 11:-0.526171 12:-0.0412655 13:0.0598939 14:-0.646241 15:-0.191554 
-15 1:-0.193548 2:-0.455419 3:-0.355364 4:-0.652439 5:-0.514037 6:0.150001 7:-0.443519 8:0.223205 9:-0.819125 10:0.453885 11:-0.737898 12:-0.0427286 13:-0.206529 14:-0.905138 15:-0.377465 
-15 1:-0.790323 2:-0.250514 3:-0.538904 4:-0.62593 5:-0.276034 6:-0.766994 7:-0.253002 8:-0.394175 9:-0.930669 10:-0.706511 11:-0.801653 12:-0.0239292 13:0.0907986 14:-0.82453 15:-0.779387 
-15 1:-0.677419 2:-0.636859 3:-0.94678 4:-0.954464 5:-0.961389 6:0.150185 7:-0.524444 8:0.0554922 9:-0.665461 10:0.476341 11:-0.624285 12:-0.082639 13:-0.561583 14:-0.875406 15:-0.380995 
9.857469044093028 1:0.370968 2:-0.340292 3:-0.537813 4:-0.725783 5:-0.675425 6:-0.92433 7:-0.211894 8:-0.384286 9:-0.807628 10:0.394116 11:-0.652893 12:-0.538633 13:0.0583673 14:-0.893812 15:0.346807 
-15 1:-0.548387 2:-0.388843 3:-0.907891 4:-0.897083 5:-0.850644 6:-0.463577 7:-0.293034 8:-0.378665 9:-0.69323 10:0.443963 11:-0.573554 12:-0.103159 13:-0.408012 14:-0.818671 15:-0.42182 
15 1:0.0483871 2:0.452321 3:-0.406996 4:-0.645671 5:-0.25234 6:-0.100224 7:0.507596 8:-0.17278 9:-1 10:0.360337 11:-0.884298 12:0.140192 13:0.502174 14:-0.590537 15:0.168552 
-15 1:-0.645161 2:-0.630801 3:-0.769857 4:-0.931806 5:-0.859866 6:-0.0388403 7:-0.444664 8:-0.217635 9:-0.836737 10:-0.678717 11:-0.707989 12:-0.49774 13:-0.68228 14:-0.785853 15:-0.615887 
-15 1:-0.0483871 2:-0.516986 3:0.726775 4:-0.229549 5:-0.15635 6:0.0968759 7:-0.482579 8:-0.243165 9:-0.913591 10:-0.481743 11:-0.873908 12:-0.0946691 13:-0.745209 14:-0.845968 15:-0.282805 
-15 1:-0.596774 2:0.292701 3:-0.824255 4:-0.925679 5:-0.91434 6:-0.728034 7:-0.529575 8:-0.383192 9:-0.799067 10:0.406336 11:-0.603306 12:0.160827 13:0.0201597 14:-0.797923 15:-0.339618 
-15 1:-0.790323 2:0.144821 3:-0.355141 4:-0.812781 5:-0.722204 6:-0.132087 7:0.101609 8:0.0263895 9:-0.813254 10:-0.33394 11:-0.775507 12:0.234893 13:-0.0406044 14:-0.476703 15:-0.754517 
-15 1:0.435484 2:-0.80819 3:-0.499941 4:-0.64381 5:-0.553937 6:-0.415883 7:-0.56279 8:-0.280394 9:-0.740849 10:0.192403 11:-0.652893 12:-0.101394 13:-0.769758 14:-0.867618 15:0.459427 
15 1:-0.483871 2:-0.580485 3:-0.689771 4:-0.679775 5:-0.511774 6:-0.0535696 7:-0.251761 8:-0.26601 9:-0.83506 10:-0.321105 11:-0.762692 12:-0.00747881 13:-0.694347 14:-0.669825 15:-0.506486 
-15 1:-0.580645 2:-0.492684 3:-0.907483 4:-0.949659 5:-0.94696 6:0.0196785 7:-0.663162 8:-0.153418 9:-0.779987 10:0.638836 11:-0.610068 12:-0.260121 13:-0.331183 14:-0.823788 15:-0.378493 
0.05192131843609906 2:0.21229 3:-0.660692 4:-0.89623 5:-0.86325 6:-0.131018 7:-0.16661 8:-0.339697 9:-0.583457 10:0.390784 11:-0.659189 12:0.0591652 13:0.075842 14:-0.743024 15:-0.0276521 
-15 1:-0.16129 2:0.271251 3:-0.445695 4:-0.746567 5:-0.629325 6:-0.362702 7:-0.358161 8:0.184718 9:-0.773557 10:0.0834437 11:-0.603306 12:0.166739 13:0.0991771 14:-0.768813 15:-0.123848 
-15 1:-0.629032 2:0.256667 3:-0.714286 4:-0.937512 5:-0.853653 6:0.0408769 7:-0.149618 8:0.283122 9:-0.784553 10:0.393936 11:-0.672727 12:0.181143 13:0.490911 14:-0.724854 15:-0.678342 
-15 1:-0.677419 2:0.293524 3:-0.794461 4:-0.9493 5:-0.883241 6:-0.113388 7:-0.196053 8:-0.368878 9:-0.777051 10:-0.175102 11:-0.775507 12:0.0965684 13:0.490673 14:-0.68462 15:-0.639487 
4.421733497570782 1:-0.306452 2:0.345385 3:-0.784433 4:-0.966068 5:-0.919789 6:-0.657483 7:-0.357686 8:0.252952 9:-0.668087 10:0.0503695 11:-0.656434 12:0.239767 13:0.263475 14:-0.647353 15:-0.0617898 
-15 1:-0.516129 2:-0.22615 3:-0.886285 4:-0.912493 5:-0.871674 6:0.185782 7:-0.807447 8:-0.269089 9:-0.76517 10:0.376993 11:-0.652893 12:-0.287835 13:-0.326121 14:-0.898767 15:-0.355656 
-15 1:0.532258 2:-0.471572 3:0.407116 4:-0.197996 5:0.0803469 6:-1 7:-0.0655913 8:-0.151789 9:-0.843097 10:-0.184571 11:-0.798928 12:-0.181617 13:-0.602032 14:-0.730565 15:0.346104 
-15 1:-0.693548 2:-0.340321 3:-0.908011 4:-0.927801 5:-0.85167 6:0.153568 7:-0.750296 8:-0.162308 9:-0.700406 10:0.668643 11:-0.619835 12:-0.241269 13:-0.370314 14:-0.73913 15:-0.573655 
-15 1:-0.435484 2:-0.423434 3:-0.463815 4:-0.650751 5:-0.544356 6:0.112933 7:-0.367047 8:0.889797 9:-0.850436 10:0.164132 11:-0.798347 12:-0.202865 13:-0.210312 14:-0.643348 15:-0.453494 
-15 1:-0.483871 2:-0.0717679 3:-0.447632 4:-0.815383 5:-0.842635 6:-0.29953 7:-0.394031 8:0.253524 9:-0.716387 10:0.711023 11:-0.785124 12:0.00537935 13:-0.20199 14:-0.753926 15:0.282051 
-15 1:-0.580645 2:0.0772341 3:-0.516154 4:-0.678092 5:-0.554282 6:-0.537308 7:-0.194775 8:0.281599 9:-0.711821 10:-0.170548 11:-0.692562 12:0.0628449 13:0.16153 14:-0.629332 15:-0.0487682 
15 1:-0.677419 2:-0.312158 3:-0.926801 4:-0.93413 5:-0.950326 6:0.00131754 7:0.0943543 8:0.211417 9:-0.679206 10:0.347328 11:-0.585274 12:0.100107 13:-0.084874 14:-0.798832 15:-0.594771 
-15 1:-0.516129 2:-0.453714 3:-0.184238 4:-0.618656 5:-0.281994 6:-0.271421 7:-0.0398559 8:0.199923 9:-0.896512 10:-0.0556154 11:-0.85124 12:-0.116641 13:-0.341821 14:-0.750811 15:-0.492207 
15 1:0.806452 2:0.806436 3:0.434338 4:0.232013 5:0.399044 6:0.170948 7:0.373179 8:-0.311427 9:-0.824996 10:0.427231 11:-0.839797 12:0.34053 13:0.957823 14:-0.793084 15:0.563058 
15 1:-0.516129 2:-0.02055 3:-0.400571 4:-0.639512 5:-0.329403 6:-0.127291 7:0.215856 8:-0.752718 9:-0.440881 10:0.608508 11:-0.669894 12:-1 13:-0.422996 14:-0.620376 15:-0.286325 
15 1:-0.193548 2:0.390037 3:-0.422011 4:-0.57864 5:-0.235624 6:-0.397598 7:0.292934 8:-0.368556 9:-0.393496 10:0.468463 11:-0.586777 12:0.533805 13:0.547478 14:-0.699638 15:0.00754148 
15 1:-0.645161 2:-0.0453058 3:-0.698562 4:-0.713909 5:-0.542485 6:-0.111822 7:0.832471 8:-0.457097 9:-0.86022 10:0.622412 11:-0.752066 12:-0.557981 13:-0.12764 14:-0.815778 15:-0.632981 
1.753427716502483 1:0.0967742 2:-0.0804823 3:-0.430003 4:-0.713945 5:-0.417586 6:0.0220618 7:0.436072 8:-0.296792 9:-0.909143 10:0.481817 11:-0.957025 12:-0.479545 13:-0.127853 14:-0.305831 15:-0.0100553 
-15 1:-0.419355 2:0.0539702 3:-0.322518 4:-0.689932 5:-0.418548 6:-0.36664 7:0.456215 8:-0.626352 9:-0.760418 10:0.392879 11:-0.694215 12:-0.511305 13:-0.136195 14:-0.493835 15:-0.425574 
15 1:-0.33871 2:0.934934 3:-0.481945 4:-0.694014 5:-0.480803 6:-0.317052 7:-0.0800866 8:-0.837797 9:-0.894466 10:0.445579 11:-0.835982 12:-0.218846 13:0.554254 14:-0.782738 15:-0.0329311 
-15 1:-0.419355 2:0.107862 3:-0.655424 4:-0.806257 5:-0.599382 6:-0.231274 7:-0.00293363 8:-0.648991 9:-0.838205 10:0.348522 11:-0.970248 12:-0.322217 13:0.105214 14:-0.408177 15:-0.368527 
-15 1:-0.290323 2:0.272158 3:-0.701338 4:-0.831905 5:-0.645453 6:-0.238118 7:0.0500405 8:-0.730466 9:-0.865812 10:0.436993 11:-0.707438 12:-0.453475 13:0.0259795 14:-0.875406 15:-0.0112284 
-15 1:-0.193548 2:0.538372 3:0.015588 4:-0.294082 5:0.0760404 6:0.557246 7:0.448401 8:-0.352039 9:-0.772159 10:0.657624 11:-0.546635 12:0.466183 13:0.641658 14:-0.57115 15:0.877996 
14.24746917478223 1:-0.209677 2:0.590674 3:0.0397407 4:-0.405618 5:-0.113951 6:0.422885 7:0.413017 8:-0.658124 9:-0.783901 10:0.553409 11:-0.844156 12:0.521044 13:0.545179 14:0.0212293 15:0.0668373 
-15 1:-0.612903 2:0.196229 3:0.562422 4:-0.399783 5:-0.225196 6:0.300974 7:0.303139 8:-0.606082 9:-0.194869 10:0.722968 11:-0.764688 12:0.839253 13:0.0834117 14:-0.476703 15:0.0216189 
-13.29667513575769 1:-0.225806 2:-0.0403642 3:0.0134036 4:-0.328595 5:0.0956422 6:0.121184 7:0.323878 8:-0.230296 9:-0.747698 10:0.361854 11:-0.871074 12:0.652582 13:-0.441598 14:-0.461129 15:0.926094 
15 1:-0.483871 2:0.35029 3:-0.18565 4:-0.505955 5:-0.113408 6:-0.0430492 7:0.211808 8:0.176509 9:-0.575981 10:0.390094 11:-0.785124 12:0.77068 13:0.0385505 14:-0.828683 15:-0.0824535 
15 1:-0.306452 2:0.385512 3:-0.135771 4:-0.518738 5:-0.151921 6:-0.239833 7:0.0324616 8:-0.288353 9:-0.877343 10:0.223637 11:-0.652893 12:-0.333094 13:0.656253 14:-0.835357 15:0.617222 
15 1:-0.596774 2:0.722176 3:-0.683075 4:-0.790935 5:-0.617779 6:-0.103221 7:0.490677 8:-0.497626 9:-0.970926 10:0.233688 11:-0.929162 12:0.0573013 13:1 14:-0.735237 15:-0.386626 
-15 1:-0.774194 2:0.365678 3:-0.770166 4:-0.808129 5:-0.540747 6:-0.29295 7:0.0655062 8:-0.610891 9:-0.725193 10:0.346083 11:-0.504132 12:-0.544133 13:0.264335 14:-0.783907 15:-0.508631 
15 1:-0.467742 2:0.0551222 3:-0.767181 4:-0.843096 5:-0.622574 6:-0.437154 7:0.0830775 8:-0.90836 9:-0.870005 10:0.218009 11:-0.85124 12:1 13:0.074647 14:-0.893705 15:-0.0741076 
15 1:-0.483871 2:0.208329 3:-0.837629 4:-0.888047 5:-0.681694 6:-0.162226 7:0.0336244 8:-0.837345 9:-0.696106 10:0.480446 11:-0.702479 12:0.462567 13:0.0776286 14:-0.792802 15:-0.473906 
15 1:1 2:0.450503 3:1 4:0.336016 5:0.282829 6:-0.218481 7:0.255098 8:-0.392347 9:-0.934359 10:0.44033 11:-0.899324 12:-0.560415 13:0.150166 14:-0.816613 15:0.759175 
15 1:0.854839 2:0.926108 3:-0.812723 4:0.00227923 5:0.145557 6:0.0994611 7:0.409637 8:-0.963202 9:-0.669421 10:0.58646 11:-0.727273 12:0.746605 13:0.728687 14:-0.78114 15:0.659125 
15 1:-0.596774 2:0.469954 3:-0.813326 4:-0.592258 5:-0.470624 6:-0.258669 7:0.408211 8:-0.334989 9:-0.46688 10:0.539975 11:-0.752066 12:0.0369437 13:0.354984 14:-0.689626 15:-0.185923 
-15 1:-0.419355 2:1 3:-0.93799 4:-0.800182 5:-0.700843 6:-0.180317 7:0.107134 8:-0.831123 9:-0.81619 10:0.584554 11:-0.62284 12:0.6038 13:0.752512 14:-0.891759 15:-0.315535 
15 1:0.596774 2:0.988605 3:-0.765028 4:-0.42415 5:-0.170138 6:-0.417777 7:0.288338 8:-0.414316 9:-0.803132 10:0.502739 11:-0.759695 12:0.435495 13:0.608018 14:-0.535367 15:-0.0980392 
-15 1:0.177419 2:0.511325 3:-0.826409 4:-0.541835 5:-0.336273 6:0.275444 7:0.22644 8:-1 9:-0.837206 10:0.415382 11:-0.674931 12:-0.0550531 13:0.595498 14:-0.817781 15:0.260935 
15 1:-0.5 2:0.712029 3:-0.898162 4:-0.69487 5:-0.497576 6:0.0648848 7:0.108383 8:-0.334199 9:-0.849066 10:0.26598 11:-0.826446 12:-0.251412 13:0.189437 14:-0.501622 15:-0.566616 
-15 1:-0.435484 2:0.58708 3:-0.853817 4:-0.584569 5:-0.36745 6:-0.150443 7:0.208468 8:-0.589725 9:-0.747698 10:0.371486 11:-0.85124 12:0.335496 13:0.551461 14:-0.73952 15:-0.544997 
-15 1:-0.709677 2:-0.152948 3:-0.989111 4:-0.805953 5:-0.68026 6:-0.210267 7:0.199298 8:0.0341626 9:-0.395453 10:0.398744 11:-0.90791 12:-0.141077 13:-0.20294 14:-0.931918 15:-0.646419 
10.98205096884688 1:-0.870968 2:0.315408 3:-0.947038 4:-0.883429 5:-0.811113 6:-0.125061 7:0.166061 8:0.15498 9:-0.419914 10:0.464596 11:-0.917355 12:-0.136644 13:0.107895 14:-0.87852 15:-0.770236 
-15 1:-0.774194 2:-0.0105114 3:-0.928293 4:-0.780691 5:-0.717209 6:0.0688904 7:0.173402 8:-0.370713 9:-0.478622 10:0.209539 11:-0.808737 12:-0.364336 13:-0.349667 14:-0.867618 15:-0.80719 
15 1:-0.33871 2:-0.182623 3:-0.867929 4:-0.725018 5:-0.543699 6:-0.182046 7:0.00290363 8:-0.0704266 9:0.475374 10:0.305551 11:-0.876033 12:-0.441418 13:0.226553 14:-0.696969 15:-0.338361 
15 1:-0.274194 2:-0.0855819 3:-0.604614 4:-0.63402 5:-0.475578 6:-0.138734 7:0.0608615 8:-0.339131 9:0.155419 10:0.578953 11:-0.22314 12:-0.139738 13:0.423255 14:-0.855826 15:-0.394369 
-3.852633186866392 1:-0.451613 2:0.641753 3:-0.886746 4:-0.705892 5:-0.587411 6:0.239642 7:0.232243 8:-0.58477 9:-0.51776 10:0.416564 11:-0.930579 12:-0.254577 13:0.126356 14:-0.539959 15:-0.47637 
-15 1:0.403226 2:0.733188 3:-0.883661 4:-0.530791 5:-0.330512 6:0.0574738 7:0.108327 8:-0.610146 9:-0.185085 10:0.472595 11:-0.504132 12:0.856671 13:0.507046 14:-0.809215 15:0.375119 
-15 1:0.419355 2:0.775907 3:-0.890753 4:-0.548244 5:-0.314923 6:0.168764 7:-0.298395 8:-0.853132 9:-0.496234 10:0.594825 11:-0.603306 12:0.603625 13:0.794984 14:-0.610642 15:0.285571 
-15 1:0.951613 2:0.621174 3:-0.629741 4:0.11592 5:0.1709 6:-0.272275 7:0.306619 8:-0.927916 9:-0.830867 10:0.38796 11:-0.884298 12:0.168667 13:0.432688 14:-0.151201 15:0.711413 
-15 1:-0.403226 2:0.479008 3:-0.885935 4:-0.644355 5:-0.497142 6:-0.215812 7:0.323006 8:-0.464485 9:-0.986441 10:0.362188 11:-0.957025 12:0.0664695 13:0.163868 14:-0.595068 15:-0.305681 
-7.254362025509411 1:-0.16129 2:0.712158 3:-0.90844 4:-0.913261 5:-0.89325 6:-0.184514 7:0.409664 8:-0.617107 9:-0.91667 10:0.23859 11:-0.757025 12:0.0445632 13:0.444404 14:-0.856494 15:-0.00184347 
15 1:0.709677 2:0.688989 3:0.371845 4:0.157581 5:0.405608 6:-0.284333 7:0.363635 8:-0.519963 9:-0.764641 10:0.161381 11:-0.860255 12:-0.415946 13:0.783825 14:-0.79423 15:0.0568125 
15 1:-0.225806 2:0.394683 3:-0.424682 4:-0.574849 5:-0.193321 6:-0.336372 7:0.276164 8:-0.47297 9:-0.855164 10:0.497818 11:-0.78561 12:0.632982 13:0.665423 14:-0.841661 15:0.354159 
15 1:-0.612903 2:0.338182 3:0.0494483 4:-0.487151 5:-0.244038 6:0.0138965 7:0.444525 8:-0.949004 9:-0.636922 10:0.436161 11:-0.890909 12:0.731109 13:0.329468 14:-0.667748 15:0.106083 
15 1:-0.532258 2:0.38216 3:0.0125078 4:-0.614591 5:-0.3829 6:-0.162094 7:0.205294 8:-0.328068 9:-0.918928 10:0.330716 11:-0.788938 12:-0.52221 13:0.348061 14:-0.890638 15:0.378247 
-15 1:-0.483871 2:0.40719 3:-0.421732 4:-0.634395 5:-0.32757 6:-0.0578049 7:0.32628 8:0.0505055 9:-0.737214 10:0.429909 11:-0.834711 12:-0.443294 13:0.508262 14:-0.813108 15:-0.318921 
-2.567269566229115 1:-0.112903 2:0.438451 3:-0.627506 4:-0.770041 5:-0.543043 6:0.0971615 7:0.134597 8:-0.216963 9:-0.877343 10:0.258198 11:-0.800236 12:-0.369132 13:0.543259 14:-0.770835 15:-0.0868443 
-5.018750337776452 1:-0.806452 2:0.208788 3:-0.405337 4:-0.536773 5:-0.259326 6:-0.339666 7:0.394715 8:-0.794507 9:-0.751192 10:0.493157 11:-0.939394 12:-0.96091 13:0.00547561 14:-0.898059 15:-0.0546003 
15 1:-0.241935 2:0.958211 3:-0.524907 4:-0.69397 5:-0.546528 6:-0.486382 7:0.0773753 8:-0.592366 9:-0.801513 10:0.449526 11:-0.735961 12:-0.610044 13:0.797985 14:-0.859831 15:-0.227552 
15 1:-0.564516 2:0.28081 3:-0.269817 4:-0.60581 5:-0.291195 6:-0.39175 7:0.285876 8:-0.233112 9:-0.831996 10:0.401229 11:-0.702479 12:0.654331 13:-0.290594 14:-0.661259 15:-0.165611 
15 1:-0.403226 2:0.155687 3:-0.470839 4:-0.743011 5:-0.436577 6:0.442176 7:0.32454 8:-0.644945 9:-0.661267 10:0.474452 11:-0.482881 12:-0.0279963 13:0.648649 14:-0.883193 15:0.286744 
15 1:-0.33871 2:0.299426 3:0.149109 4:-0.124725 5:0.248812 6:-0.0136939 7:0.893402 8:-0.78929 9:-0.0383161 10:0.541684 11:-0.482881 12:-0.834074 13:0.246343 14:-0.700195 15:0.398425 
-15 1:-0.387097 2:0.506827 3:0.125053 4:-0.147474 5:0.222709 6:0.297123 7:0.773113 8:-0.347541 9:1 10:0.542357 11:-0.783235 12:-0.839108 13:0.30371 14:-0.688514 15:0.0314731 
15 1:-0.258065 2:-0.196503 3:-0.702792 4:-0.817545 5:-0.556949 6:0.041573 7:0.485168 8:0.162066 9:-0.870005 10:0.198957 11:-0.950413 12:0.447432 13:-0.309285 14:-0.894873 15:-0.0769231 
-15 1:-0.193548 2:0.279783 3:-0.22141 4:-0.441764 5:-0.043357 6:-0.134833 7:0.294692 8:-0.390044 9:-0.938497 10:0.250688 11:-0.81157 12:0.484215 13:0.229238 14:-0.766385 15:0.0397185 
-15 1:0.0645161 2:0.172584 3:-0.101232 4:-0.468208 5:-0.132034 6:-0.120341 7:0.645456 8:-0.0515471 9:0.387313 10:0.549593 11:-0.363636 12:-0.0479723 13:0.453673 14:-0.595068 15:0.187029 
9.738457871222286 1:0.870968 2:0.598885 3:-0.756124 4:-0.0330344 5:-0.0296768 6:0.215228 7:0.330485 8:-0.964901 9:0.157375 10:0.48988 11:1 12:-0.0756124 13:0.480851 14:0.196106 15:1 
-15 1:-0.387097 2:0.789908 3:-0.823391 4:-0.543242 5:-0.333899 6:0.0948951 7:-0.0626532 8:-0.764976 9:-0.830867 10:0.498686 11:-0.931341 12:0.129802 13:0.688303 14:-0.644623 15:-0.359645 
15 1:-0.5 2:0.190178 3:-0.951098 4:-0.719909 5:-0.632769 6:-0.251425 7:0.111752 8:-0.808833 9:-0.874897 10:0.381427 11:-0.867769 12:0.76821 13:0.0940098 14:-0.898767 15:-0.576672 
-15 1:-0.435484 2:0.208108 3:-0.805742 4:-0.577433 5:-0.45209 6:0.143724 7:0.443272 8:-0.81825 9:-0.884097 10:0.410903 11:-0.752066 12:-0.359769 13:0.380579 14:-0.43265 15:-0.187196 
-15 1:-0.758065 2:0.356002 3:-0.146736 4:-0.641231 5:-0.695493 6:-0.135242 7:-0.81326 8:-0.179618 9:-0.838787 10:0.48707 11:-0.822904 12:0.249086 13:-0.108107 14:-0.883193 15:-0.686023 
15 1:-0.645161 2:0.124712 3:-0.713157 4:-0.899835 5:-0.918195 6:-0.200779 7:0.549994 8:-0.499757 9:-0.625391 10:0.517755 11:-0.642975 12:-0.0948228 13:-0.0420153 14:-0.590841 15:-0.728507 
-15 1:-0.322581 2:0.572371 3:-0.731724 4:-0.682311 5:-0.564172 6:0.0873361 7:-0.042334 8:-0.491334 9:-0.704646 10:0.637869 11:-0.652893 12:-0.493122 13:-0.0928029 14:-0.53523 15:-0.411262 
-15 1:-0.0645161 2:0.399772 3:-0.663255 4:-0.40848 5:-0.325905 6:0.0252986 7:0.341271 8:-0.96616 9:-0.273146 10:0.519536 11:-0.652893 12:0.541522 13:0.0712203 14:-0.844646 15:-0.137925 
15 1:-0.419355 2:0.38022 3:-0.988784 4:-0.828048 5:-0.74136 6:0.0623744 7:-0.0128395 8:-0.291261 9:-0.761676 10:0.359735 11:-0.730028 12:0.662728 13:-0.0976163 14:-0.76861 15:-0.400302 
-15 1:-0.66129 2:0.246038 3:-0.986501 4:-0.79538 5:-0.720216 6:0.00562957 7:0.497342 8:-0.596242 9:0.15458 10:0.43029 11:-0.971665 12:0.065232 13:0.378695 14:-0.819338 15:-0.627954 
15 1:0.193548 2:0.0468583 3:-0.55244 4:-0.43138 5:-0.254699 6:0.342838 7:-0.195858 8:0.0299079 9:-0.873266 10:0.545859 11:-0.914994 12:0.0411576 13:-0.565379 14:-0.848151 15:0.364756 
-15 1:-0.370968 2:0.304111 3:-0.857004 4:-0.652814 5:-0.514146 6:-0.182155 7:0.0602453 8:-0.182791 9:-0.882236 10:0.312333 11:-0.722314 12:0.382102 13:0.550434 14:-0.809994 15:-0.145551 
15 1:-0.112903 2:0.814941 3:-0.85772 4:-0.553326 5:-0.462561 6:0.0667622 7:0.570686 8:-0.563884 9:0.157375 10:0.461092 11:-0.871074 12:0.434547 13:0.789635 14:-0.515713 15:-0.363164 
15 1:-0.258065 2:-0.0791519 3:-0.715175 4:-0.837894 5:-0.923372 6:0.720109 7:-0.971978 8:-0.481769 9:-0.882236 10:0.69958 11:-0.884298 12:0.111269 13:0.171721 14:-0.947287 15:-0.355485 
8.905864022137701 1:-0.612903 2:-0.136968 3:-0.810889 4:-0.88491 5:-0.975663 6:0.389135 7:-0.992857 8:-0.516924 9:-0.933605 10:0.720028 11:-0.761082 12:0.184969 13:0.0127836 14:-0.99199 15:-0.523615 
15 1:-0.387097 2:0.0860804 3:-0.0817551 4:-0.679548 5:-0.605749 6:0.129901 7:-0.940939 8:0.634487 9:-0.926476 10:0.323109 11:-0.900826 12:0.2118 13:0.00663613 14:-1 15:-0.375365 
15 1:-0.483871 2:0.405233 3:-0.494713 4:-0.704221 5:-0.830138 6:1 7:-0.913377 8:0.0640327 9:-0.865113 10:0.850926 11:-0.807163 12:0.122197 13:0.0137541 14:-0.951578 15:-0.414781 
-15 1:0.193548 2:-0.420127 3:0.252151 4:-0.532027 5:-0.538399 6:0.380485 7:-0.535528 8:-0.360144 9:-0.993265 10:0.473098 11:-0.955565 12:0.127745 13:-0.355182 14:-0.989381 15:-0.186219 
