svm_type epsilon_svr
kernel_type linear
nr_class 2
total_sv 172
rho -30.0148
SV
23 1:-0.943662 2:0.349219 3:-0.458668 4:-0.658713 5:-0.454545 6:-0.824095 7:-0.910066 8:0.387629 9:0.467005 10:-0.927255 11:-0.86656 12:-0.429555 13:-0.927294 14:-0.789898 15:-0.426997 16:0.250647 17:0.421934 18:0.252502 19:0.239909 20:-0.569619 21:0.233466 22:0.219937 23:-0.173683 
23 1:-0.676056 2:0.51739 3:-0.0922729 4:0.0436619 5:-0.69697 6:-0.119737 7:-0.588683 8:0.163158 9:0.0234487 10:0.146649 11:-0.770955 12:-0.602442 13:-0.7137 14:-0.688342 15:-0.582448 16:0.0574608 17:0.532429 18:0.466513 19:0.505554 20:-0.669031 21:0.462309 22:0.491819 23:-0.533965 
-23 1:0.704225 2:0.592508 3:-0.315045 4:0.199785 5:0.575758 6:0.702059 7:0.324808 8:0.447252 9:0.497177 10:-0.684788 11:-0.390838 12:-0.648427 13:0.151845 14:-0.533265 15:-0.638393 16:-0.23468 17:0.271784 18:0.354251 19:0.561427 20:-0.571316 21:0.348682 22:0.551787 23:-0.186414 
23 1:-0.549296 2:0.613547 3:-0.175179 4:-0.232156 5:-0.818182 6:-0.366473 7:-0.675536 8:0.552505 9:0.463065 10:-0.461485 11:-0.668616 12:-0.392865 13:-0.726775 14:-0.888295 15:-0.365559 16:-0.220243 17:0.678237 18:0.473647 19:0.385909 20:-0.541596 21:0.465575 22:0.37262 23:-0.184834 
23 1:-0.492958 2:0.511755 3:-0.0647719 4:-0.0432732 5:-0.878788 6:-0.474177 7:-0.62484 8:0.110242 9:-0.105312 10:0.358142 11:-0.735118 12:-0.525623 13:-0.627274 14:-0.76653 15:-0.525481 16:-0.107245 17:0.640536 18:0.39949 19:0.453417 20:-0.613869 21:0.391567 22:0.442377 23:-0.43128 
23 1:0.521127 2:0.445541 3:-0.584372 4:-0.394609 5:-0.69697 6:0.362605 7:-0.339892 8:0.0959737 9:-0.0551911 10:-0.46965 11:-0.578947 12:-0.723379 13:-0.57192 14:-0.571547 15:-0.709938 16:-0.453978 17:0.212442 18:0.130994 19:0.220786 20:-0.558708 21:0.123659 22:0.201908 23:-0.345972 
23 1:-0.422535 2:0.605515 3:0.417617 4:0.178481 5:-0.818182 6:-0.568603 7:-0.704584 8:0.466442 9:0.190305 10:-0.0762128 11:-0.559617 12:-0.583963 13:-0.679532 14:-0.622631 15:-0.55339 16:-0.0818564 17:0.71973 18:0.658845 19:0.630187 20:-0.556589 21:0.65034 22:0.626242 23:-0.312796 
23 1:0.84507 2:0.341109 3:1 4:1 5:-0.212121 6:0.445238 7:-0.102051 8:0.100178 9:-0.0732617 10:0.501941 11:-0.100146 12:-0.627055 13:-0.289496 14:-0.449998 15:-0.616395 16:-0.319765 17:0.294858 18:0.264963 19:0.259399 20:-0.549702 21:0.251697 22:0.2413 23:-0.329384 
23 1:-0.253521 2:0.302854 3:0.0342004 4:0.433179 5:0.393939 6:-0.0896633 7:-0.359741 8:0.324026 9:0.265899 10:-0.658177 11:-0.259584 12:-0.66627 13:-0.333385 14:-0.439528 15:-0.659509 16:-0.269037 17:0.232379 18:0.0882105 19:0.224803 20:-0.423618 21:0.0696651 22:0.199026 23:-0.162717 
23 1:-0.661972 2:0.626537 3:-0.518036 4:-0.481203 5:-0.69697 6:-0.559309 7:-0.682343 8:0.376788 9:0.301053 10:-0.415439 11:-0.794347 12:-0.496406 13:-0.548944 14:-0.775715 15:-0.503263 16:-0.109227 17:0.496166 18:0.424939 19:0.334598 20:-0.495666 21:0.404364 22:0.312845 23:-0.276913 
-11.94006507478197 1:-0.338028 2:0.687201 3:-0.325781 4:-0.186661 5:-0.272727 6:0.530581 7:-0.00965572 8:0.479284 9:0.420083 10:-0.382058 11:-0.471387 12:-0.594465 13:0.240257 14:-0.571365 15:-0.57837 16:-0.0246996 17:0.617341 18:0.458285 19:0.595417 20:-0.485534 21:0.455142 22:0.586097 23:-0.336493 
-23 1:-0.380282 2:0.659599 3:0.0699669 4:-0.221249 5:-0.818182 6:-0.403126 7:-0.682597 8:0.376707 9:0.309258 10:-0.0774786 11:-0.390058 12:-0.426406 13:-0.417143 14:-0.544689 15:-0.476928 16:0.12079 17:0.572826 18:0.487556 19:0.572705 20:-0.306541 21:0.483896 22:0.556174 23:0.303318 
-23 1:-0.507042 2:0.351001 3:-0.797583 4:-0.826315 5:0.393939 6:-0.318541 7:-0.647988 8:0.508416 9:0.576924 10:-0.986708 11:-0.433723 12:-0.123529 13:-0.730895 14:-0.045278 15:-0.503627 16:0.0294951 17:0.238706 18:0.410781 19:0.608754 20:-0.0858944 21:0.405267 22:0.597754 23:0.315166 
23 1:-0.887324 2:0.743355 3:-0.585653 4:-0.465371 5:-0.0909091 6:0.0657126 7:-0.466126 8:0.605988 9:0.595527 10:-0.710443 11:-0.887914 12:-0.491464 13:-0.56725 14:-0.437394 15:-0.477158 16:-0.281148 17:0.561658 18:0.411125 19:0.578019 20:-0.337345 21:0.402133 22:0.559897 23:-0.36019 
-23 1:-0.732394 2:0.577588 3:-0.159143 4:-0.310421 5:-0.939394 6:0.373682 7:-0.333976 8:0.289634 9:0.345482 10:-0.503307 11:-0.626949 12:-0.671067 13:-0.291914 14:-0.492709 15:-0.675566 16:0.102993 17:0.660352 18:0.384341 19:0.422285 20:-0.710008 21:0.370828 22:0.406614 23:-0.526066 
-23 1:-0.211268 2:0.409152 3:0.423552 4:0.0322572 5:-1 6:-0.0695842 7:-0.568124 8:0.0443625 9:-0.0731228 10:0.145671 11:-0.481481 12:-0.642404 13:-0.679657 14:-0.647112 15:-0.604152 16:0.452251 17:0.738856 18:0.547475 19:0.269479 20:-0.605989 21:0.542335 22:0.24831 23:-0.488152 
23 1:-0.746479 2:0.527696 3:-0.0828818 4:0.010821 5:-0.393939 6:0.078907 7:-0.485503 8:0.369864 9:0.21566 10:-0.328918 11:-0.683561 12:-0.718623 13:-0.357221 14:-0.507561 15:-0.707677 16:0.090662 17:0.659595 18:0.534096 19:0.287119 20:-0.481603 21:0.524289 22:0.2701 23:-0.2891 
-3.242304911202249 1:-0.507042 2:0.554361 3:0.00468152 4:-0.0349192 5:-0.939394 6:0.884755 7:-0.222106 8:0.168621 9:0.296926 10:0.509833 11:-0.358568 12:-0.728814 13:-0.383506 14:-0.472342 15:-0.733056 16:-0.139574 17:0.70937 18:0.461106 19:0.363028 20:-0.643225 21:0.452786 22:0.344331 23:-0.407583 
-23 1:-0.408451 2:0.724448 3:-0.747555 4:-0.78673 5:0.151515 6:-0.577097 7:-0.767011 8:0.498384 9:0.52699 10:-0.72867 11:0.368421 12:-0.143967 13:-0.492371 14:-0.34234 15:-0.347019 16:-0.71215 17:0.423349 18:0.677292 19:0.681683 20:-0.436126 21:0.663714 22:0.670562 23:0.115324 
23 1:-0.507042 2:0.134472 3:-0.0131139 4:0.0953165 5:-0.575758 6:-0.451657 7:-0.579789 8:0.0660528 9:0.0456162 10:-0.378646 11:-0.26675 12:-0.670158 13:-0.424176 14:-0.699674 15:-0.673994 16:-0.0393268 17:0.337186 18:0.0581583 19:0.277425 20:-0.511426 21:0.0460693 22:0.257373 23:-0.454976 
23 1:-0.492958 2:0.343133 3:0.496404 4:0.119416 5:-0.878788 6:-0.101135 7:-0.416518 8:0.109476 9:-0.0367703 10:-0.0408269 11:-0.392857 12:-0.644046 13:-0.343827 14:-0.40503 15:-0.630856 16:0.12446 17:0.570696 18:0.390572 19:0.432842 20:-0.501069 21:0.376161 22:0.415392 23:-0.14376 
23 1:0.197183 2:0.557931 3:0.322022 4:0.575022 5:-0.515152 6:0.504079 7:-0.116692 8:0.102803 9:0.0418617 10:0.528252 11:-0.652153 12:-0.576483 13:-0.282395 14:-0.516424 15:-0.559465 16:-0.116211 17:0.505527 18:0.50006 19:0.589747 20:-0.438628 21:0.48795 22:0.579207 23:-0.207854 
23 1:-0.774648 2:0.496434 3:0.0333159 4:0.416099 5:-0.333333 6:-0.638955 7:-0.812681 8:0.252718 9:0.342586 10:-0.306142 11:-0.462394 12:-0.751215 13:-0.583184 14:-0.530443 15:-0.756254 16:-0.227103 17:0.519755 18:0.216458 19:0.67893 20:-0.591184 21:0.212165 22:0.667896 23:-0.285037 
23 1:-0.0704225 2:-0.329769 3:-0.242698 4:-0.215782 5:0.212121 6:-0.0734203 7:-0.36829 8:-0.438853 9:-0.504843 10:-0.771163 11:-0.416764 12:-0.566155 13:-0.243153 14:-0.743141 15:-0.538964 16:0.00581442 17:-0.381507 18:-0.439448 19:-0.220419 20:-0.684791 21:-0.436733 22:-0.2353 23:-0.478673 
23 1:-0.704225 2:-0.0681665 3:-0.56712 4:-0.610219 5:-0.333333 6:-0.243148 7:-0.609932 8:-0.204304 9:-0.241193 10:-0.760258 11:-0.491228 12:-0.609526 13:-0.441444 14:-0.434024 15:-0.593254 16:0.0428591 17:-0.0901263 18:-0.239224 19:-0.0105662 20:-0.684791 21:-0.238358 22:-0.025488 23:-0.537915 
23 1:-0.507042 2:0.327458 3:-0.272239 4:-0.621874 5:-0.0909091 6:-0.403075 7:-0.647786 8:-0.0655399 9:-0.209875 10:-0.706573 11:-0.196846 12:-0.652655 13:-0.640601 14:-0.629834 15:-0.648253 16:0.709235 17:0.475445 18:0.3414 19:0.47374 20:-0.527187 21:0.341798 22:0.466418 23:-0.295024 
23 1:-1 2:0.403756 3:0.745654 4:0.889478 5:-0.636364 6:-0.998542 7:-1 8:0.0706231 9:0.00560863 10:-0.219335 11:-0.863843 12:-0.711869 13:-0.95218 14:-0.545233 15:-0.703784 16:-0.00978697 17:0.507127 18:0.39222 19:0.233914 20:-0.6983 21:0.395768 22:0.224545 23:-0.43128 
23 1:-0.408451 2:-0.331103 3:0.358635 4:0.373982 5:-0.333333 6:0.0807117 7:-0.396797 8:-0.357261 9:-0.51342 10:-0.370419 11:-0.559064 12:-0.591741 13:-0.527727 14:-0.450227 15:-0.586774 16:-0.0745798 17:-0.338148 18:-0.387171 19:-0.404893 20:-0.611843 21:-0.391703 22:-0.413934 23:-0.483412 
-23 1:-0.859155 2:0.109286 3:-0.0975338 4:-0.313843 5:-1 6:-0.643219 7:-0.7985 8:-0.0889168 9:-0.266087 10:-0.347025 11:-0.586466 12:-0.575084 13:-0.657599 14:-0.566255 15:-0.579146 16:0.013615 17:0.132278 18:-0.156314 19:-0.00292531 20:-0.657473 21:-0.157021 22:-0.0247036 23:-0.395735 
-23 1:0.521127 2:-0.582113 3:0.0920466 4:0.179696 5:1 6:0.519592 7:0.813421 8:-0.500499 9:-0.547395 10:-0.668231 11:-0.491 12:-0.245015 13:0.61718 14:-0.511635 15:-0.270501 16:-0.184178 17:-0.581749 18:-0.569823 19:-0.392092 20:-0.179056 21:-0.56847 22:-0.405185 23:-0.257504 
23 1:-0.521127 2:-0.0454296 3:-0.508729 4:-0.519566 5:-0.939394 6:-0.937858 7:-0.925049 8:-0.000375219 9:0.0119544 10:-0.593411 11:-0.579783 12:-0.60373 13:-0.879064 14:-0.709831 15:-0.612603 16:0.185804 17:0.0473566 18:-0.0311641 19:0.0531246 20:-0.106908 21:-0.0245141 22:0.04626 23:-0.221395 
-4.959221168984609 1:-0.633803 2:0.193196 3:0.0276749 4:-0.0334896 5:-0.939394 6:-0.561639 7:-0.734232 8:0.0418428 9:-0.0712522 10:-0.309551 11:-0.673002 12:-0.703394 13:-0.734298 14:-0.68836 15:-0.684418 16:-0.154685 17:0.303386 18:0.275687 19:0.400973 20:-0.503307 21:0.274289 22:0.387124 23:-0.477488 
23 1:-0.478873 2:0.254022 3:-0.5726 4:-0.649925 5:-0.515152 6:-0.460507 7:-0.775094 8:0.123442 9:0.102424 10:-0.642749 11:-0.586884 12:-0.531563 13:-0.7782 14:-0.649897 15:-0.525761 16:0.147696 17:0.349456 18:0.310383 19:0.178054 20:-0.364329 21:0.310089 22:0.162049 23:0.244076 
23 1:-0.450704 2:0.702351 3:-0.170923 4:-0.163864 5:0.333333 6:-0.810497 7:-0.913565 8:0.500371 9:0.384296 10:-0.667674 11:-0.56391 12:-0.483519 13:-0.866071 14:-0.606387 15:-0.469017 16:0.193973 17:0.569215 18:0.685876 19:0.712046 20:-0.359075 21:0.674985 22:0.700363 23:0.244076 
23 1:-0.535211 2:0.877416 3:-0.340869 4:-0.253667 5:0.393939 6:-0.971844 7:-0.955091 8:0.561238 9:0.534462 10:-0.658289 11:-0.465497 12:-0.627528 13:-0.848732 14:-0.648426 15:-0.656699 16:0.326068 17:0.751914 18:0.805551 19:0.966143 20:-0.227738 21:0.797335 22:0.957838 23:-0.0205371 
-23 1:0.549296 2:0.57747 3:-0.829131 4:-0.784328 5:0.454545 6:0.731172 7:-0.0856349 8:0.634247 9:0.737953 10:-0.893347 11:-0.591374 12:-0.591362 13:-0.192029 14:-0.421279 15:-0.598394 16:-0.0634823 17:0.480326 18:0.558085 19:0.595961 20:-0.421367 21:0.571585 22:0.59198 23:-0.0225118 
-23 1:-0.380282 2:0.498703 3:-0.144886 4:-0.210252 5:0.212121 6:-0.470014 7:-0.823938 8:0.335023 9:0.30557 10:-0.520748 11:-0.435088 12:-0.45689 13:-0.597202 14:-0.666456 15:-0.441764 16:0.391526 17:0.549473 18:0.664883 19:0.585298 20:-0.380667 21:0.650137 22:0.568471 23:0.069736 
-23 1:-0.0704225 2:0.436365 3:0.399294 4:0.514073 5:0.333333 6:-0.344072 7:-0.640249 8:0.321488 9:0.200106 10:-0.301629 11:-0.445094 12:-0.504757 13:-0.522398 14:-0.733138 15:-0.511025 16:0.329805 17:0.415301 18:0.653657 19:0.432024 20:-0.423618 21:0.648926 22:0.415721 23:0.0189573 
23 1:-0.774648 2:0.660457 3:-0.121557 4:0.0558449 5:0.393939 6:-0.564032 7:-0.959739 8:0.511317 9:0.483078 10:-0.44514 11:-0.722083 12:-0.0772602 13:-0.861614 14:-0.371813 15:-0.0548848 16:0.692567 17:0.397248 18:0.657045 19:0.663007 20:-0.0403642 21:0.65316 22:0.650182 23:0.480889 
23 1:0.084507 2:0.717459 3:-0.170158 4:-0.272953 5:0.0909091 6:-0.753115 7:-0.878506 8:0.600649 9:0.538669 10:-0.422322 11:-0.435965 12:-0.458217 13:-0.744549 14:-0.837327 15:-0.461039 16:0.196791 17:0.515416 18:0.544406 19:0.747837 20:-0.376587 21:0.543019 22:0.743302 23:0.253216 
-23 1:0.239437 2:0.598933 3:-0.167081 4:0.0774321 5:0.393939 6:-0.282375 7:-0.694841 8:0.361656 9:0.233472 10:-0.373578 11:-0.366959 12:-0.586161 13:-0.611323 14:-0.629076 15:-0.556054 16:0.296278 17:0.480846 18:0.647489 19:0.645487 20:-0.201471 21:0.637303 22:0.627655 23:0.462424 
23 1:-0.323944 2:0.810955 3:-0.274552 4:-0.275366 5:-0.030303 6:-0.727335 7:-0.899528 8:0.689773 9:0.479466 10:-0.563647 11:-0.510443 12:-0.566857 13:-0.874969 14:-0.774953 15:-0.567822 16:-0.00320387 17:0.658689 18:0.75264 19:0.759099 20:-0.343315 21:0.755366 22:0.747544 23:-0.00473934 
-19.73259969569039 1:-0.267606 2:0.755241 3:0.0879744 4:0.0953849 5:0.272727 6:-0.720853 7:-0.887225 8:0.622619 9:0.472347 10:-0.496761 11:-0.476608 12:-0.515774 13:-0.828215 14:-0.480135 15:-0.479951 16:0.0300563 17:0.598433 18:0.452693 19:0.703322 20:-0.287628 21:0.440827 22:0.68653 23:0.291469 
-23 1:-0.619718 2:0.725923 3:-0.00183048 4:0.0247986 5:0.272727 6:-0.362951 7:-0.783675 8:0.707008 9:0.601978 10:-0.550679 11:-0.639724 12:-0.3014 13:-0.815009 14:-0.528389 15:-0.258458 16:0.0120143 17:0.561803 18:0.750708 19:0.57101 20:-0.466772 21:0.734046 22:0.546891 23:-0.0473934 
-23 1:0.0140845 2:0.48536 3:0.347818 4:0.29869 5:0.333333 6:-0.239512 7:-0.744782 8:0.312267 9:0.297896 10:-0.183981 11:-0.139908 12:-0.400108 13:-0.581671 14:-0.780167 15:-0.358552 16:0.0835533 17:0.494362 18:0.495169 19:0.711277 20:-0.306541 21:0.489129 22:0.701401 23:0.13998 
23 1:0.0140845 2:0.716497 3:0.374357 4:0.240595 5:0.151515 6:-0.766312 7:-0.852831 8:0.550547 9:0.571633 10:-0.379861 11:-0.33946 12:-0.525588 13:-0.749446 14:-0.606994 15:-0.522464 16:-0.0167291 17:0.627813 18:0.699985 19:0.743241 20:-0.487786 21:0.695949 22:0.734777 23:-0.0363349 
23 1:-0.169014 2:0.495383 3:-0.584579 4:-0.674783 5:0.393939 6:-0.493711 7:-0.785318 8:0.670049 9:0.708059 10:-0.721358 11:-0.516179 12:-0.404098 13:-0.541214 14:-0.669217 15:-0.487196 16:-0.41505 17:0.493413 18:0.421655 19:0.580129 20:-0.34177 21:0.431944 22:0.571193 23:-0.17898 
-23 1:-0.169014 2:0.747827 3:-0.232407 4:-0.281578 5:0.272727 6:-0.26505 7:-0.617592 8:0.542762 9:0.444755 10:-0.641634 11:-0.559454 12:-0.60209 13:-0.516952 14:-0.633237 15:-0.576666 16:0.206564 17:0.57749 18:0.575722 19:0.525401 20:-0.535067 21:0.563149 22:0.503658 23:-0.232227 
-23 1:-0.676056 2:0.571331 3:0.0933619 4:-0.0175477 5:0.454545 6:-0.6998 7:-0.938215 8:0.599895 9:0.388061 10:-0.481725 11:-0.535673 12:-0.436372 13:-0.894707 14:-0.695876 15:-0.4027 16:0.605994 17:0.508128 18:0.635563 19:0.579032 20:-0.32005 21:0.623198 22:0.559231 23:0.137441 
-23 1:-0.633803 2:0.799518 3:-0.258854 4:-0.423284 5:0.212121 6:-0.630817 7:-0.834879 8:0.585519 9:0.625218 10:-0.596688 11:-0.526687 12:-0.237513 13:-0.604102 14:-0.775896 15:-0.21438 16:0.455419 17:0.61255 18:0.715978 19:0.79065 20:-0.277121 21:0.711661 22:0.784039 23:0.238998 
-23 1:-0.309859 2:0.420931 3:-0.59398 4:-0.593065 5:0.575758 6:-0.295406 7:-0.593526 8:0.679568 9:0.673398 10:-0.732768 11:-0.652047 12:-0.540043 13:-0.747094 14:-0.8248 15:-0.526377 16:-0.448114 17:0.471571 18:0.476968 19:0.512275 20:-0.747833 21:0.470099 22:0.506325 23:-0.625162 
-22.62858911399007 1:-0.366197 2:0.447514 3:0.173733 4:0.263244 5:0.212121 6:-0.825446 7:-0.936272 8:0.307558 9:0.357102 10:-0.361117 11:-0.615984 12:-0.555535 13:-0.885438 14:-0.733426 15:-0.550743 16:1 17:0.450121 18:0.56406 19:0.644936 20:-0.38039 21:0.55891 22:0.638031 23:0.0437312 
23 1:-0.323944 2:0.350593 3:-0.0646105 4:-0.178639 5:0.393939 6:-0.784672 7:-0.92389 8:0.348315 9:0.257971 10:-0.527687 11:-0.511404 12:-0.405841 13:-0.787373 14:-0.693338 15:-0.395619 16:0.555643 17:0.494612 18:0.556141 19:0.625854 20:-0.407407 21:0.544765 22:0.611565 23:0.0248815 
-23 1:-0.267606 2:0.651357 3:-0.0934595 4:-0.0664026 5:-0.454545 6:-0.306772 7:-0.639936 8:0.292044 9:0.26952 10:-0.449731 11:-0.512671 12:-0.684471 13:-0.613422 14:-0.582786 15:-0.672355 16:-0.139355 17:0.796227 18:0.722389 19:0.847391 20:-0.663777 21:0.717068 22:0.837689 23:-0.419431 
-23 1:-0.760563 2:0.527019 3:-0.489618 4:-0.267222 5:-0.151515 6:-0.497766 7:-0.599185 8:0.381727 9:0.485665 10:-0.733504 11:-0.596491 12:-0.716645 13:-0.242535 14:-0.577887 15:-0.71497 16:0.0320262 17:0.66745 18:0.575405 19:0.641501 20:-0.39585 21:0.575747 22:0.630676 23:-0.182464 
-23 1:-0.71831 2:0.594007 3:0.242478 4:-0.242482 5:-0.575758 6:-0.959798 7:-0.958071 8:0.268933 9:0.117377 10:-0.271129 11:-0.538012 12:-0.489278 13:-0.906625 14:-0.655167 15:-0.433343 16:-0.0217136 17:0.66919 18:0.537295 19:0.498627 20:-0.621749 21:0.529526 22:0.482544 23:-0.278944 
-23 1:0.0422535 2:0.371032 3:-0.215509 4:-0.349087 5:-0.575758 6:-0.416161 7:-0.732769 8:0.195579 9:0.13144 10:-0.367772 11:-0.519298 12:-0.724209 13:-0.714874 14:-0.7932 15:-0.733324 16:-0.159589 17:0.613404 18:0.348905 19:0.393283 20:-0.705159 21:0.339707 22:0.379369 23:-0.506319 
23 1:0.169014 2:0.602497 3:-0.162905 4:-0.311416 5:-0.030303 6:-0.520747 7:-0.724825 8:0.332567 9:0.273212 10:-0.2965 11:-0.308772 12:-0.839755 13:-0.717184 14:-0.640042 15:-0.84253 16:0.0987951 17:0.854583 18:0.70377 19:0.642055 20:-0.721566 21:0.689878 22:0.628774 23:-0.410599 
19.62798065563882 1:-0.577465 2:0.701128 3:-0.261218 4:-0.362987 5:-0.0909091 6:-0.870704 7:-0.87634 8:0.309432 9:0.292131 10:-0.0333231 11:-0.677388 12:-0.540025 13:-0.892725 14:-0.652243 15:-0.49528 16:-0.158488 17:0.715758 18:0.626576 19:0.731908 20:-0.345566 21:0.608491 22:0.713916 23:-0.0616114 
-23 1:-0.0422535 2:0.323863 3:-0.64353 4:-0.601478 5:0.515152 6:-0.224454 7:-0.556516 8:0.629595 9:0.631697 10:-0.770768 11:-0.164596 12:-0.633688 13:0.0702175 14:-0.857305 15:-0.618839 16:-0.554864 17:0.201565 18:0.201839 19:0.382627 20:-0.601261 21:0.207913 22:0.380428 23:-0.445103 
-6.787287125953366 1:-0.690141 2:0.444185 3:-0.0024177 4:0.0595336 5:-0.393939 6:-0.743504 7:-0.909592 8:0.215063 9:0.0825051 10:-0.226807 11:-0.721735 12:-0.692125 13:-0.82311 14:-0.609609 15:-0.684959 16:0.0686647 17:0.600517 18:0.275552 19:0.46511 20:-0.642763 21:0.264373 22:0.455163 23:-0.419431 
-23 1:0.197183 2:0.565058 3:0.0462228 4:0.247271 5:-0.515152 6:0.649297 7:-0.238325 8:0.260286 9:0.089795 10:0.0469453 11:-0.610136 12:-0.605064 13:-0.354139 14:-0.617957 15:-0.580062 16:-0.250074 17:0.543804 18:0.452611 19:0.400457 20:-0.591457 21:0.446052 22:0.384107 23:-0.21327 
23 1:-0.084507 2:0.365517 3:-0.738386 4:-0.748213 5:0.575758 6:-0.100939 7:-0.530558 8:0.640821 9:0.663267 10:-0.892682 11:-0.630799 12:-0.487514 13:-0.020417 14:-0.450519 15:-0.633859 16:0.0806923 17:0.308578 18:0.320839 19:0.443997 20:-0.596533 21:0.34723 22:0.438183 23:-0.146919 
-23 1:-0.676056 2:0.868784 3:-0.0693766 4:-0.363172 5:-0.636364 6:-0.799308 7:-0.914609 8:0.69241 9:0.625289 10:-0.484632 11:-0.536062 12:-0.517357 13:-0.871889 14:-0.867966 15:-0.474502 16:0.138381 17:0.761287 18:0.562342 19:0.781547 20:-0.590229 21:0.557884 22:0.760821 23:-0.407583 
-23 1:-0.084507 2:0.687157 3:0.164378 4:0.0409804 5:0.0909091 6:-0.35916 7:-0.784251 8:0.742376 9:0.637753 10:-0.279725 11:-0.585909 12:-0.54252 13:-0.75798 14:-0.587157 15:-0.512605 16:0.316178 17:0.808965 18:0.751833 19:0.655745 20:-0.570528 21:0.742953 22:0.633623 23:-0.396281 
-23 1:-0.816901 2:0.609003 3:0.0140054 4:0.0342051 5:0.212121 6:-0.290197 7:-0.797778 8:0.582507 9:0.483799 10:-0.473846 11:-0.682651 12:-0.572244 13:-0.81594 14:-0.607864 15:-0.53617 16:0.663739 17:0.423296 18:0.400091 19:0.467695 20:-0.268716 21:0.392192 22:0.444086 23:-0.129993 
23 1:0.408451 2:0.48962 3:-0.106084 4:-0.421491 5:-0.636364 6:-0.482804 7:-0.637549 8:0.206037 9:-0.0153793 10:-0.208341 11:-0.308967 12:-0.679528 13:-0.616506 14:-0.865641 15:-0.675187 16:-0.0253243 17:0.728961 18:0.413592 19:0.581518 20:-0.628754 21:0.403678 22:0.568314 23:-0.306026 
23 1:-0.507042 2:0.533717 3:-0.0958208 4:-0.23721 5:-0.0909091 6:-0.66821 7:-0.659288 8:0.241138 9:0.126219 10:-0.518077 11:-0.605848 12:-0.682368 13:-0.623494 14:-0.443401 15:-0.669051 16:-0.185038 17:0.551089 18:0.359603 19:0.325494 20:-0.693598 21:0.351065 22:0.309908 23:-0.530806 
-23 1:-0.633803 2:0.686473 3:-0.214927 4:-0.722855 5:-0.69697 6:-0.925861 7:-0.956303 8:0.314878 9:0.243031 10:-0.147686 11:-0.443818 12:-0.632665 13:-0.836417 14:-0.817997 15:-0.635858 16:0.224603 17:0.786733 18:0.631994 19:0.515323 20:-0.669031 21:0.622556 22:0.502239 23:-0.40866 
9.335767480568066 1:-0.126761 2:0.685373 3:-0.0820491 4:-0.168019 5:-0.030303 6:-0.608644 7:-0.885785 8:0.710082 9:0.551778 10:-0.466226 11:-0.445906 12:-0.322455 13:-0.767561 14:-0.765955 15:-0.292958 16:0.401112 17:0.4901 18:0.598213 19:0.549733 20:-0.312845 21:0.586597 22:0.530827 23:0.146919 
-23 1:-0.28169 2:0.845584 3:0.261784 4:0.0422226 5:-0.454545 6:-0.46872 7:-0.689116 8:0.736457 9:0.704364 10:-0.106798 11:-0.307407 12:-0.29315 13:-0.47764 14:-0.784442 15:-0.308597 16:0.373403 17:0.792975 18:0.858296 19:0.966673 20:-0.414612 21:0.845475 22:0.955712 23:-0.0555179 
23 1:-0.380282 2:0.787292 3:0.183717 4:-0.109613 5:-0.272727 6:-0.754492 7:-0.913584 8:0.700063 9:0.658607 10:-0.323929 11:-0.637719 12:-0.472127 13:-0.884367 14:-0.97761 15:-0.481858 16:0.187534 17:0.662925 18:0.529897 19:0.647705 20:-0.513678 21:0.51607 22:0.624136 23:-0.345972 
-23 1:-0.225352 2:0.816301 3:0.0383229 4:-0.0567563 5:-0.333333 6:-0.428046 7:-0.746352 8:0.724683 9:0.609809 10:-0.298809 11:-0.475634 12:-0.397497 13:-0.590332 14:-0.76493 15:-0.401549 16:0.43257 17:0.905836 18:0.783146 19:0.773427 20:-0.551434 21:0.7802 22:0.754998 23:-0.228946 
-23 1:-0.633803 2:0.79997 3:-0.0734351 4:-0.0897864 5:-0.030303 6:-0.679659 7:-0.917735 8:0.670799 9:0.678862 10:-0.353809 11:-0.680556 12:-0.563519 13:-0.852918 14:-0.526049 15:-0.561735 16:0.695032 17:0.868208 18:0.812017 19:0.842145 20:-0.613869 21:0.805768 22:0.820859 23:-0.305349 
-23 1:-0.71831 2:0.857172 3:-0.216069 4:-0.248792 5:-0.030303 6:-0.779927 7:-0.941792 8:0.757955 9:0.664087 10:-0.457212 11:-0.667154 12:-0.581198 13:-0.82567 14:-0.498972 15:-0.57821 16:0.537783 17:0.821616 18:0.739876 19:0.866114 20:-0.201471 21:0.737729 22:0.852129 23:0.161137 
23 1:-0.394366 2:0.907507 3:-0.0999539 4:-0.322567 5:-0.393939 6:-0.78123 7:-0.968591 8:0.769069 9:0.680974 10:-0.33107 11:-0.39599 12:-0.336213 13:-0.87158 14:-0.867047 15:-0.311339 16:0.581005 17:1 18:0.91265 19:0.807714 20:-0.356974 21:0.912954 22:0.782359 23:-0.260664 
-23 1:0.267606 2:0.725408 3:-0.1473 4:0.0114904 5:0.212121 6:0.255814 7:-0.535123 8:0.731288 9:0.670383 10:-0.459763 11:-0.365079 12:-0.395804 13:-0.636674 14:-0.764978 15:-0.364809 16:-0.131335 17:0.334931 18:0.389208 19:0.66615 20:-0.467147 21:0.37506 22:0.642331 23:0.0805687 
-23 1:-0.535211 2:0.598486 3:-0.155273 4:-0.443954 5:-0.878788 6:-0.897288 7:-0.91556 8:0.430968 9:0.328038 10:-0.529784 11:-0.582456 12:-0.620219 13:-0.823232 14:-0.745942 15:-0.574964 16:-0.0338134 17:0.731485 18:0.556704 19:0.382486 20:-0.691095 21:0.543086 22:0.36652 23:-0.388626 
-23 1:0.464789 2:0.398128 3:-0.177018 4:-0.00231808 5:0.0909091 6:0.331111 7:-0.207359 8:0.293587 9:0.179242 10:-0.513021 11:-0.377889 12:-0.672046 13:-0.247269 14:-0.423599 15:-0.683105 16:0.176307 17:0.645395 18:0.347158 19:0.538787 20:-0.625252 21:0.328558 22:0.516634 23:-0.336493 
-23 1:-0.676056 2:0.624537 3:0.110682 4:-0.458747 5:-0.757576 6:-0.911508 7:-0.922531 8:0.472767 9:0.258928 10:-0.173731 11:-0.655806 12:-0.541132 13:-0.774636 14:-0.62639 15:-0.505787 16:0.205358 17:0.695811 18:0.479211 19:0.598927 20:-0.621749 21:0.473518 22:0.585614 23:-0.331754 
-23 1:-0.450704 2:0.48854 3:0.00714554 4:-0.345471 5:-0.515152 6:-0.441427 7:-0.634132 8:0.22316 9:0.305806 10:-0.672584 11:-0.693747 12:-0.658257 13:-0.560823 14:-0.451749 15:-0.647812 16:0.00327548 17:0.506243 18:0.310954 19:0.513082 20:-0.609491 21:0.28981 22:0.494858 23:-0.405429 
-23 1:-0.478873 2:0.643944 3:-0.223747 4:-0.379514 5:-0.272727 6:-0.478763 7:-0.802479 8:0.491914 9:0.420427 10:-0.611297 11:-0.369591 12:-0.688415 13:-0.867209 14:-0.536535 15:-0.70453 16:0.0307322 17:0.681367 18:0.543191 19:0.526674 20:-0.550827 21:0.52673 22:0.503706 23:-0.276913 
-23 1:-0.577465 2:0.626788 3:-0.100839 4:-0.314912 5:-0.0909091 6:-0.412675 7:-0.642453 8:0.582548 9:0.590872 10:-0.614249 11:-0.230799 12:-0.649058 13:-0.49565 14:-0.247679 15:-0.625525 16:-0.136575 17:0.496271 18:0.351344 19:0.68239 20:-0.414237 21:0.334937 22:0.669093 23:-0.253555 
23 1:-0.676056 2:0.417055 3:-0.00231832 4:-0.200299 5:0.272727 6:-0.875489 7:-0.906889 8:0.490324 9:0.261001 10:-0.415877 11:-0.654808 12:-0.340767 13:-0.830749 14:-0.70866 15:-0.321285 16:0.571337 17:0.454987 18:0.512492 19:0.54825 20:-0.612293 21:0.504152 22:0.52956 23:-0.265834 
23 1:0.211268 2:0.649897 3:-0.400889 4:-0.655688 5:-0.878788 6:0.0493873 7:-0.425862 8:0.394364 9:0.413401 10:-0.66281 11:-0.152047 12:-0.725306 13:-0.525168 14:-0.620523 15:-0.724989 16:-0.113474 17:0.728538 18:0.406983 19:0.657416 20:-0.667905 21:0.396219 22:0.640707 23:-0.42733 
-23 1:-0.535211 2:0.312839 3:-0.625237 4:-0.392085 5:0.151515 6:-0.145973 7:-0.604904 8:0.358228 9:0.130597 10:-0.670691 11:-0.554337 12:-0.61089 13:-0.409217 14:-0.432797 15:-0.599139 16:0.177433 17:0.218903 18:0.135594 19:0.484027 20:-0.254006 21:0.131726 22:0.470351 23:0.42654 
17.06307991678434 1:-0.492958 2:0.398685 3:-0.279335 4:-0.186929 5:0.454545 6:-0.557922 7:-0.749466 8:0.53934 9:0.562852 10:-0.599868 11:-0.554678 12:-0.63553 13:-0.449368 14:-0.634535 15:-0.614789 16:-0.587751 17:0.227514 18:0.203447 19:0.36915 20:-0.492289 21:0.207056 22:0.412841 23:-0.0438389 
-23 1:-0.225352 2:0.354024 3:-0.536772 4:-0.479242 5:0.393939 6:-0.61418 7:-0.772547 8:0.531583 9:0.540314 10:-0.568634 11:-0.634503 12:0.160587 13:-0.678072 14:-0.295803 15:0.103629 16:-0.706038 17:0.0618503 18:0.0756378 19:0.258727 20:-0.401103 21:0.0808846 22:0.253422 23:-0.0758294 
23 1:0.647887 2:0.359377 3:-0.449834 4:-0.196184 5:0.393939 6:0.506055 7:0.247181 8:0.664404 9:0.706729 10:-0.723462 11:-0.0249867 12:-0.419332 13:0.195466 14:0.105503 15:-0.382715 16:0.124313 17:0.0890419 18:0.0801132 19:0.394624 20:-0.676911 21:0.119043 22:0.379371 23:-0.383886 
23 1:-0.647887 2:0.124826 3:-0.638043 4:-0.574846 5:0.636364 6:0.0197432 7:-0.287867 8:0.504123 9:0.476124 10:-0.813673 11:-0.394706 12:-0.550138 13:-0.174052 14:-0.526392 15:-0.538594 16:-0.564667 17:0.00583381 18:0.0879769 19:0.107981 20:-0.423817 21:0.0975116 22:0.117625 23:-0.00839838 
23 1:-0.56338 2:0.299433 3:-0.70393 4:-0.697492 5:0.272727 6:-0.321848 7:-0.62308 8:0.542591 9:0.516964 10:-0.773445 11:-0.498405 12:-0.245444 13:-0.319114 14:-0.291635 15:-0.722565 16:-0.493561 17:0.298514 18:0.204552 19:0.264098 20:-0.591661 21:0.213669 22:0.263413 23:-0.324645 
23 1:-0.15493 2:0.404865 3:-0.798269 4:-0.863746 5:0.393939 6:-0.213247 7:-0.4868 8:0.719268 9:0.673399 10:-0.823818 11:0.482456 12:-0.0496384 13:-0.540431 14:-0.71699 15:-0.488255 16:-0.409728 17:0.195099 18:0.270519 19:0.446813 20:-0.369582 21:0.29789 22:0.438645 23:0.07109 
23 1:-0.633803 2:-0.0944698 3:-0.965771 4:-0.929248 5:1 6:-0.62474 7:-0.639987 8:0.204097 9:0.267847 10:-0.972978 11:-0.869883 12:-0.327199 13:-0.51915 14:-0.716307 15:-0.357111 16:-0.492044 17:-0.251963 18:-0.138 19:0.236657 20:-0.41161 21:-0.130685 22:0.233897 23:0.327014 
-23 1:0.028169 2:0.209036 3:-0.677185 4:-0.64642 5:0.575758 6:-0.377384 7:-0.66789 8:0.610457 9:0.511715 10:-0.784655 11:-0.555945 12:-0.596292 13:-0.36571 14:-0.72168 15:-0.578459 16:-0.564484 17:0.170915 18:0.243921 19:0.289297 20:-0.650268 21:0.263412 22:0.315226 23:-0.443466 
-23 1:-0.450704 2:0.280968 3:-0.79263 4:-0.808796 5:0.575758 6:-0.271681 7:-0.632118 8:0.6403 9:0.575934 10:-0.817543 11:-0.461014 12:-0.303117 13:-0.1467 14:-0.589648 15:-0.277772 16:-0.279938 17:0.288235 18:0.382389 19:0.304708 20:-0.548201 21:0.379241 22:0.323558 23:-0.00473934 
23 1:-0.253521 2:0.694598 3:-0.603095 4:-0.715226 5:0.030303 6:-0.275767 7:-0.616244 8:1 9:1 10:-0.605112 11:-0.792663 12:-0.377984 13:-0.44946 14:-0.814819 15:-0.544736 16:-0.276982 17:0.390184 18:0.576559 19:0.629601 20:-0.582348 21:0.571555 22:0.637441 23:-0.287277 
-23 1:-0.492958 2:0.402956 3:-0.817199 4:-0.885569 5:0.030303 6:-0.622146 7:-0.768814 8:0.579563 9:0.547393 10:-0.829761 11:-0.584357 12:-0.473215 13:-0.642779 14:-0.377019 15:-0.71012 16:0.331126 17:0.647942 18:0.536852 19:0.486129 20:-0.718939 21:0.53461 22:0.494142 23:-0.533965 
-23 1:-0.380282 2:0.507024 3:-0.837134 4:-0.982432 5:0.0909091 6:-0.627246 7:-0.795513 8:0.675508 9:0.63576 10:-0.835147 11:-0.609524 12:-0.428407 13:-0.564296 14:-1 15:-0.408128 16:-0.29517 17:0.700379 18:0.683715 19:0.562997 20:-0.635258 21:0.682697 22:0.569401 23:-0.2891 
23 1:0.309859 2:0.296323 3:-0.496845 4:-0.225437 5:0.636364 6:0.170663 7:-0.251208 8:0.457558 9:0.482388 10:-0.735159 11:-0.430994 12:-0.509155 13:0.0790269 14:0.05562 15:-0.497216 16:-0.461945 17:-0.0854447 18:0.181827 19:0.677358 20:-0.188863 21:0.187176 22:0.673972 23:0.118483 
-23 1:-0.140845 2:0.342759 3:-0.761668 4:-0.574028 5:0.636364 6:0.100611 7:-0.391028 8:0.564851 9:0.574432 10:-0.776666 11:-0.162281 12:-0.404999 13:-0.167746 14:-0.338 15:-0.446982 16:-0.328462 17:-0.107358 18:0.140424 19:0.685717 20:-0.217231 21:0.132901 22:0.673058 23:0.706161 
-23 1:-0.338028 2:0.178663 3:-0.752063 4:-0.623916 5:0.333333 6:0.539358 7:-0.350497 8:0.383242 9:0.383344 10:-0.895563 11:-0.927875 12:0.224676 13:-0.258304 14:0.100436 15:-0.429298 16:-0.536327 17:-0.073963 18:-0.24438 19:0.144657 20:-0.462933 21:-0.237293 22:0.127174 23:-0.454976 
23 1:-0.0422535 2:0.40885 3:-0.605832 4:-0.5159 5:0.393939 6:0.287086 7:-0.209689 8:0.46891 9:0.447842 10:-0.574008 11:-0.527778 12:-0.411991 13:0.144055 14:0.529738 15:-0.366197 16:-0.538468 17:0.0941125 18:0.128863 19:0.483546 20:-0.53244 21:0.119256 22:0.469582 23:-0.57346 
23 1:-0.478873 2:0.754 3:-0.556317 4:-0.515291 5:0.333333 6:-0.0635397 7:-0.453628 8:0.730693 9:0.737528 10:-0.682512 11:-0.695127 12:-0.267848 13:-0.0568816 14:-0.157698 15:-0.294926 16:-0.180827 17:0.499964 18:0.519379 19:0.773055 20:-0.750835 21:0.515645 22:0.75249 23:-0.620853 
23 1:-0.380282 2:0.343487 3:-0.545989 4:-0.431786 5:0.0909091 6:-0.02959 7:-0.578601 8:0.47934 9:0.649143 10:-0.695756 11:-0.784357 12:-0.591657 13:0.0152224 14:-0.673613 15:-0.57958 16:-0.208733 17:0.155128 18:0.0450139 19:0.348859 20:-0.493756 21:0.0509046 22:0.324306 23:-0.421801 
5.503045802383157 1:0.760563 2:0.169076 3:-0.331243 4:0.0393897 5:0.636364 6:0.600348 7:1 8:0.167581 9:0.337055 10:-0.784426 11:0.744639 12:0.637977 13:1 14:1 15:-0.219283 16:-0.297522 17:-0.491777 18:-0.274766 19:0.507749 20:1 21:-0.279713 22:0.493264 23:0.204976 
23 1:-0.605634 2:-0.0948151 3:-1 4:-0.968997 5:0.69697 6:-0.635436 7:-0.743526 8:0.279867 9:0.381362 10:-0.933186 11:-0.549708 12:-0.718877 13:-0.588637 14:-0.759952 15:-0.720584 16:-0.665087 17:-0.244749 18:-0.0198659 19:0.202411 20:-0.590229 21:-0.0180315 22:0.193806 23:-0.375423 
23 1:-0.802817 2:0.37729 3:-0.91027 4:-1 5:0.151515 6:-0.695373 7:-0.758513 8:0.53419 9:0.58683 10:-0.861953 11:-0.788499 12:-0.288164 13:-0.990264 14:-0.868924 15:-0.413279 16:-0.654048 17:0.200504 18:0.219798 19:0.307591 20:-0.598634 21:0.215438 22:0.311238 23:-0.312796 
23 1:-0.535211 2:0.706524 3:-0.536386 4:-0.547266 5:0.212121 6:-0.698951 7:-0.783302 8:0.695569 9:0.521258 10:-0.614596 11:-0.75174 12:-0.597274 13:-0.970707 14:-0.676877 15:-0.569187 16:-0.444175 17:0.843899 18:1 19:1 20:-0.75834 21:1 22:1 23:-0.515911 
23 1:-0.591549 2:0.634183 3:-0.652073 4:-0.669922 5:0.151515 6:-0.812168 7:-0.875817 8:0.736103 9:0.515994 10:-0.530377 11:-0.823817 12:-0.385053 13:-0.649578 14:-0.488068 15:-0.456267 16:-0.746076 17:0.60859 18:0.780803 19:0.838816 20:-0.782748 21:0.783511 22:0.845096 23:-0.5703 
23 1:0.788732 2:0.115966 3:-0.771176 4:-0.746116 5:0.272727 6:1 7:0.369891 8:0.442517 9:0.482681 10:-0.769872 11:-0.748538 12:-0.769417 13:-0.0495515 14:-0.481814 15:-0.694649 16:-0.530182 17:0.128418 18:-0.0852427 19:-0.0484764 20:-0.0921986 21:-0.0933441 22:-0.0396891 23:-0.196682 
23 1:1 2:-0.270413 3:-0.101999 4:-0.0538328 5:0.454545 6:-0.795282 7:0.0609041 8:-0.00483623 9:0.20154 10:-0.508842 11:0.114035 12:0.0718874 13:0.0327875 14:0.0721649 15:0.0976606 16:-0.899803 17:-0.413771 18:-0.199266 19:-0.578066 20:-0.452532 21:-0.186996 22:-0.597046 23:-0.00473934 
-19.23916160573133 1:-0.352113 2:-0.009882 3:-0.677387 4:-0.510943 5:0.515152 6:-0.788706 7:-0.497541 8:0.0941202 9:0.226106 10:-0.827776 11:-0.785088 12:-0.256626 13:-0.418316 14:0.094073 15:-0.203476 16:-0.824833 17:-0.373615 18:-0.186473 19:0.114626 20:-0.180457 21:-0.176307 22:0.121109 23:0.658768 
-23 1:-0.338028 2:-0.178146 3:-0.718789 4:-0.844365 5:0.272727 6:-0.933205 7:-0.731474 8:0.226335 9:0.236842 10:-0.939688 11:-0.76462 12:-0.0137798 13:-0.812956 14:-0.26406 15:0.0220459 16:-0.951779 17:-0.0948872 18:0.0441322 19:-0.262113 20:-0.659574 21:0.03532 22:-0.252559 23:-0.317536 
-23 1:0.71831 2:-0.00604361 3:-0.132581 4:0.282994 5:0.454545 6:-0.753527 7:-0.386714 8:0.231159 9:0.306928 10:-0.413919 11:-0.638726 12:-0.325012 13:-0.495817 14:-0.280292 15:-0.411673 16:-0.685228 17:-0.623492 18:-0.440319 19:0.233848 20:0.286052 21:-0.451467 22:0.235194 23:-0.263823 
23 1:0.422535 2:-0.138272 3:-0.445987 4:-0.176988 5:0.393939 6:-0.828759 7:-0.495279 8:0.0417121 9:0.257018 10:-0.59322 11:-0.498538 12:-0.140026 13:-0.517011 14:-0.26879 15:-0.101511 16:-0.636217 17:0.0862795 18:0.0371089 19:0.179678 20:-0.725768 21:0.0348715 22:0.197733 23:-0.796209 
23 1:-0.408451 2:0.188387 3:-0.628024 4:-0.430704 5:0.212121 6:-0.846039 7:-0.637896 8:0.435289 9:0.458756 10:-0.551886 11:-0.855768 12:-0.556332 13:-0.787783 14:-0.72752 15:-0.531165 16:-0.596095 17:0.0808451 18:0.127604 19:0.291966 20:-0.572016 21:0.145356 22:0.287603 23:-0.162717 
-23 1:-0.323944 2:-0.0632003 3:-0.816321 4:-0.655823 5:0.333333 6:-0.820389 7:-0.528203 8:0.387256 9:0.417606 10:-0.832931 11:0.304094 12:-0.4414 13:-0.432484 14:-0.448012 15:-0.405963 16:-0.818903 17:-0.056267 18:0.0639084 19:0.31047 20:-0.558708 21:0.0691305 22:0.311861 23:-0.126608 
-23 1:-0.28169 2:0.217951 3:-0.539179 4:-0.58848 5:0.272727 6:-0.753785 7:-0.675724 8:0.298739 9:0.565061 10:-0.613431 11:-0.76469 12:-0.323507 13:-0.638007 14:-0.574961 15:-0.281134 16:-0.840295 17:0.300485 18:0.207174 19:-0.0747129 20:-0.683645 21:0.196294 22:-0.0615483 23:-0.425355 
-23 1:-0.732394 2:-0.258359 3:-0.632022 4:-0.753576 5:0.393939 6:-0.97688 7:-0.768618 8:0.136949 9:0.149991 10:-0.782421 11:-0.840377 12:-0.204985 13:-0.745405 14:-0.38902 15:-0.408664 16:-0.842703 17:0.00213383 18:-0.219464 19:-0.913803 20:-0.808073 21:-0.199254 22:-0.937531 23:-0.810427 
-3.717768645808361 1:-0.84507 2:-0.0177728 3:-0.646757 4:-0.806226 5:0.212121 6:-1 7:-0.822282 8:0.441563 9:0.273217 10:-0.831176 11:-1 12:-0.326018 13:-0.473677 14:-0.398807 15:-0.302163 16:-0.691229 17:0.390407 18:0.197236 19:-0.813413 20:-0.649668 21:0.213928 22:-0.83643 23:-0.312796 
23 1:-0.802817 2:0.00525879 3:-0.704353 4:-0.85195 5:0.333333 6:-0.955599 7:-0.795758 8:0.389943 9:0.280086 10:-0.864378 11:-0.555556 12:-0.219095 13:-0.536267 14:-0.136962 15:-0.14836 16:-0.705088 17:0.174795 18:0.00319261 19:-0.563965 20:-0.613344 21:-0.0043991 22:-0.584015 23:-0.253555 
-23 1:-0.71831 2:0.137676 3:-0.357452 4:-0.273596 5:0.272727 6:-0.930753 7:-0.704745 8:0.298845 9:0.246194 10:-0.502934 11:-0.859683 12:-0.177398 13:-0.659097 14:-0.287915 15:-0.485189 16:-0.617836 17:0.0284646 18:-0.0110934 19:-0.0445846 20:-0.339562 21:0.0013642 22:-0.030665 23:-0.170616 
23 1:-0.197183 2:0.31221 3:-0.786323 4:-0.847462 5:0.151515 6:-0.807628 7:-0.643931 8:0.405781 9:0.579698 10:-0.784042 11:0.0935673 12:0.725073 13:-0.958355 14:-0.332641 15:-0.470843 16:-0.640652 17:0.426739 18:0.411447 19:0.133327 20:-0.625952 21:0.413507 22:0.137558 23:-0.399684 
23 1:-0.169014 2:0.302669 3:-0.795943 4:-0.890456 5:0.212121 6:-0.589625 7:-0.557573 8:0.414775 9:0.596103 10:-0.935922 11:-0.269493 12:0.226533 13:-0.744787 14:-0.376204 15:0.106823 16:-0.821604 17:0.400181 18:0.41596 19:0.00520077 20:-0.659574 21:0.409989 22:0.00324692 23:-0.535545 
-15.14427655153648 1:-0.352113 2:-0.00506526 3:-0.564725 4:-0.508089 5:0.333333 6:-0.88307 7:-0.609193 8:0.247388 9:0.214488 10:-0.857631 11:-0.786111 12:-0.193678 13:-0.834419 14:-0.528939 15:-0.667823 16:-0.575967 17:-0.299604 18:-0.257272 19:-0.0615803 20:-0.694857 21:-0.252238 22:-0.0660028 23:-0.325342 
23 1:0.633803 2:-0.23908 3:-0.847486 4:-0.757984 5:0.333333 6:-0.829354 7:-0.39697 8:0.285325 9:0.308096 10:-0.714042 11:0.522417 12:0.416797 13:-0.4368 14:0.237256 15:-0.101603 16:-0.808768 17:-0.727016 18:-0.744274 19:-0.833967 20:-0.238245 21:-0.715058 22:-0.86831 23:0.127962 
-11.22493390500958 1:0.450704 2:-0.29904 3:-0.964515 4:-0.825183 5:-0.272727 6:-0.815495 7:-0.479974 8:0.40676 9:0.462486 10:-0.532765 11:0.690058 12:-0.373732 13:-0.554478 14:-0.241941 15:-0.509921 16:-0.631871 17:-0.842531 18:-1 19:-0.408572 20:-0.737326 21:-1 22:-0.430185 23:-0.559242 
-23 1:0.746479 2:-0.258004 3:-0.645009 4:-0.496545 5:0.393939 6:-0.650777 7:0.159046 8:0.0888808 9:0.0683785 10:-0.899906 11:0.988304 12:-0.305484 13:0.0616816 14:-0.157229 15:-0.227981 16:-0.829425 17:-0.530969 18:-0.607059 19:-0.220206 20:-0.0115952 21:-0.585495 22:-0.218014 23:-0.57346 
-23 1:-0.267606 2:0.0794381 3:-0.75078 4:-0.638053 5:0.393939 6:-0.871233 7:-0.563482 8:0.388418 9:0.28466 10:-0.949238 11:-0.78655 12:-0.730995 13:-0.648659 14:-0.681437 15:-0.724404 16:-0.831267 17:-0.0618903 18:-0.0386087 19:0.0771605 20:-0.405606 21:-0.0359044 22:0.0840383 23:-0.393365 
-9.637629924123347 1:0.309859 2:-0.0530605 3:-0.653419 4:-0.503029 5:0.69697 6:-0.789042 7:-0.475568 8:0.209127 9:0.262428 10:-0.684325 11:-0.201754 12:-0.539179 13:-0.315602 14:-0.61759 15:-0.529194 16:-0.665478 17:-0.258341 18:-0.124062 19:0.111024 20:-0.508274 21:-0.121852 22:0.129298 23:0.0236967 
23 1:-0.309859 2:0.87677 3:-0.772251 4:-0.713025 5:-0.030303 6:-0.633416 7:-0.79389 8:0.820113 9:0.77739 10:-0.639706 11:-0.684042 12:-0.734024 13:-0.656566 14:-0.535061 15:-0.735294 16:-0.169278 17:0.631114 18:0.847844 19:0.902821 20:-0.496566 21:0.838566 22:0.889431 23:0.13541 
23 1:-0.239437 2:0.537279 3:-0.462715 4:-0.352059 5:0.575758 6:-0.842078 7:-0.872334 8:0.922242 9:0.89272 10:-0.606936 11:-0.838398 12:-0.66581 13:-1 14:-0.551711 15:-0.624331 16:-0.48623 17:0.474234 18:0.550389 19:0.481234 20:-0.725243 21:0.532189 22:0.454681 23:-0.38981 
-23 1:0.605634 2:0.562023 3:-0.505243 4:-0.357953 5:0.393939 6:0.550479 7:0.143297 8:0.855735 9:0.94546 10:-0.699322 11:-0.383236 12:-0.357713 13:0.229434 14:-0.575859 15:-0.396973 16:-0.75017 17:0.407813 18:0.541603 19:0.56089 20:-0.335196 21:0.52787 22:0.552113 23:-0.587678 
23 1:-0.225352 2:0.565552 3:-0.789357 4:-0.854185 5:0.393939 6:-0.221954 7:-0.500593 8:0.872148 9:0.828364 10:-0.823596 11:-0.408855 12:-0.382898 13:-0.564848 14:-0.696474 15:-0.362744 16:-0.630416 17:0.44629 18:0.54375 19:0.588643 20:-0.655522 21:0.521311 22:0.561958 23:0.0268562 
23 1:-0.338028 2:0.590952 3:-0.496116 4:-0.420262 5:0.393939 6:0.115135 7:-0.436761 8:0.725032 9:0.757435 10:-0.801736 11:-0.41886 12:-0.302297 13:-0.20517 14:-0.238769 15:-0.420071 16:-0.591858 17:0.400424 18:0.433442 19:0.423262 20:-0.670782 21:0.430835 22:0.417321 23:-0.421226 
23 1:-0.507042 2:0.547875 3:-0.45738 4:-0.293533 5:0.212121 6:0.0911358 7:-0.601531 8:0.70226 9:0.835278 10:-0.695001 11:-0.629699 12:-0.544244 13:-0.342209 14:-0.564102 15:-0.520342 16:-0.598655 17:0.458303 18:0.357929 19:0.411173 20:-0.4335 21:0.358757 22:0.417729 23:-0.628752 
-23 1:-0.577465 2:0.366067 3:-0.857995 4:-0.861265 5:0.454545 6:-0.376568 7:-0.618045 8:0.544362 9:0.595657 10:-1 11:-0.925439 12:-0.392788 13:-0.524842 14:-0.546208 15:-0.366197 16:-0.581375 17:0.211208 18:0.416977 19:0.529455 20:-0.35157 21:0.423941 22:0.526796 23:-0.028436 
-23 1:-0.197183 2:0.285216 3:-0.557047 4:-0.455469 5:0.272727 6:-0.496121 7:-0.701935 8:0.5677 9:0.59654 10:-0.608422 11:0.174269 12:-0.712377 13:-0.767179 14:-0.690161 15:-0.656628 16:-0.62351 17:0.263556 18:0.408721 19:0.183784 20:-0.545199 21:0.404531 22:0.19938 23:-0.0001231 
23 1:-0.760563 2:0.204391 3:-0.758842 4:-0.688739 5:0.515152 6:-0.301421 7:-0.500216 8:0.539849 9:0.603928 10:-0.848361 11:-0.894006 12:-0.208216 13:-0.473731 14:-0.317259 15:-0.490575 16:-0.250138 17:0.167393 18:0.0913017 19:0.0646283 20:-0.343315 21:0.111832 22:0.0960587 23:-0.0895005 
10.20254361178664 1:-0.197183 2:0.526945 3:-0.599338 4:-0.72531 5:0.333333 6:-0.2871 7:-0.585168 8:0.727513 9:0.679766 10:-0.786521 11:-0.211501 12:-0.382262 13:-0.435656 14:-0.418126 15:-0.28167 16:-0.205039 17:0.367815 18:0.424722 19:0.750136 20:-0.332808 21:0.406993 22:0.741163 23:0.374408 
23 1:-0.0704225 2:0.374856 3:-0.702471 4:-0.708449 5:0.333333 6:0.0337784 7:-0.464365 8:0.645158 9:0.61314 10:-0.841866 11:0.327485 12:-0.517981 13:-0.200891 14:-0.418402 15:-0.446147 16:-0.4639 17:0.253446 18:0.363284 19:0.485273 20:-0.537694 21:0.387041 22:0.460699 23:-0.028436 
23 1:-0.225352 2:0.565651 3:-0.592652 4:-0.622422 5:0.212121 6:-0.283008 7:-0.621638 8:0.866364 9:0.898465 10:-0.761954 11:-0.774854 12:-0.666449 13:-0.686593 14:-0.871041 15:-0.630145 16:0.0222149 17:0.251884 18:0.495392 19:0.640412 20:-0.723358 21:0.48447 22:0.623355 23:-0.637441 
23 1:-0.577465 2:0.668469 3:-0.60707 4:-0.553054 5:0.333333 6:-0.120835 7:-0.511858 8:0.695365 9:0.684763 10:-0.604585 11:-0.708577 12:-0.330544 13:-0.769964 14:-0.225172 15:-0.28751 16:-0.553358 17:0.450963 18:0.526573 19:0.698877 20:-0.51668 21:0.520577 22:0.689757 23:0.0900474 
23 1:-0.43662 2:0.258438 3:0.124737 4:0.504042 5:0.333333 6:-0.405068 7:-0.746885 8:0.424151 9:0.467233 10:-0.332858 11:-0.75731 12:0.00231691 13:-0.257448 14:-0.169386 15:-0.117336 16:-0.305721 17:0.15155 18:0.163239 19:0.578998 20:-0.408983 21:0.159854 22:0.569905 23:-0.473934 
-15.44198437591395 1:-0.408451 2:0.557445 3:-0.622559 4:-0.613976 5:0.272727 6:-0.363746 7:-0.589975 8:0.610283 9:0.434853 10:-0.579583 11:-0.671053 12:-0.405354 13:-0.817132 14:-0.374695 15:-0.386661 16:-0.396397 17:0.632155 18:0.820199 19:0.853863 20:-0.514578 21:0.811775 22:0.845571 23:-0.595802 
23 1:-0.295775 2:0.0129419 3:-0.395076 4:-0.325355 5:0.939394 6:0.104874 7:-0.126278 8:0.344232 9:0.300323 10:-0.864388 11:-0.596004 12:0.242671 13:-0.0677573 14:0.0142875 15:0.33152 16:-0.627425 17:-0.22588 18:-0.210319 19:0.226572 20:-0.506473 21:-0.194357 22:0.213091 23:-0.222749 
-23 1:-0.43662 2:0.102622 3:-0.605799 4:-0.558305 5:0.878788 6:0.192252 7:-0.131378 8:0.439169 9:0.394512 10:-0.882071 11:-0.453216 12:0.657888 13:0.141851 14:-0.065935 15:0.184408 16:-0.394235 17:-0.0816496 18:-0.105077 19:0.281812 20:-0.113913 21:-0.106265 22:0.272998 23:0.14534 
23 1:-0.323944 2:0.183905 3:-0.822821 4:-0.80324 5:0.515152 6:-0.619518 7:-0.773824 8:0.390139 9:0.234034 10:-0.849668 11:-0.811891 12:-0.516615 13:-0.809606 14:-0.747645 15:-0.505161 16:-0.263869 17:0.182396 18:0.265728 19:0.245378 20:-0.605989 21:0.26869 22:0.228423 23:-0.413507 
-23 1:-0.732394 2:0.835398 3:-0.712358 4:-0.625399 5:-0.878788 6:-0.541964 7:-0.725409 8:0.726234 9:0.547374 10:-0.591152 11:-0.70165 12:-0.860617 13:-0.888782 14:-0.684895 15:-0.860388 16:-1 17:0.644256 18:0.106336 19:0.869072 20:-0.991594 21:0.0931674 22:0.851206 23:-0.810427 
-23 1:-0.239437 2:0.228054 3:-0.81849 4:-0.790636 5:0.393939 6:-0.0968692 7:-0.439951 8:0.462183 9:0.329469 10:-0.838519 11:-0.62807 12:-0.466365 13:-0.690134 14:-0.650013 15:-0.435122 16:-0.182247 17:0.118693 18:0.218828 19:0.445077 20:-0.424744 21:0.222226 22:0.429997 23:-0.14218 
-23 1:0.0985915 2:0.413444 3:-0.627813 4:-0.471075 5:0.818182 6:0.0818811 7:-0.395075 8:0.650777 9:0.73799 10:-0.663461 11:0.108187 12:0.583616 13:-0.528335 14:0.858209 15:0.0136417 16:-0.606745 17:0.128117 18:0.176394 19:0.597591 20:-0.396375 21:0.197412 22:0.578564 23:0.251693 
23 1:-0.112676 2:0.186248 3:-0.830201 4:-0.665018 5:0.515152 6:0.134982 7:-0.252359 8:0.563953 9:0.808046 10:-0.662227 11:0.0959064 12:0.395427 13:-0.354838 14:0.0300643 15:-0.374916 16:-0.300352 17:-0.0820174 18:0.0974896 19:0.385806 20:-0.658524 21:0.0912321 22:0.373287 23:-0.279621 
23 1:0.746479 2:-0.252782 3:-0.292665 4:-0.309477 5:0.333333 6:-0.756764 7:0.0100764 8:-0.0331679 9:0.0029066 10:-0.839211 11:1 12:1 13:-0.199868 14:0.335007 15:1 16:-0.79571 17:-0.78052 18:-0.527387 19:-0.119551 20:0.25243 21:-0.533822 22:-0.116919 23:1 
-23 1:-0.253521 2:-0.197748 3:-0.762765 4:-0.756374 5:0.151515 6:-0.781024 7:-0.445521 8:-0.0710256 9:0.253682 10:-0.635789 11:-0.62406 12:-0.0431831 13:0.0300649 14:-0.426088 15:-0.482599 16:-0.676928 17:-0.168897 18:-0.374804 19:-0.106898 20:-0.586647 21:-0.332844 22:-0.101085 23:-0.713486 
23 1:-0.464789 2:0.230211 3:-0.545781 4:-0.491501 5:0.212121 6:-0.919994 7:-0.6657 8:-0.00438834 9:0.155248 10:-0.717392 11:-0.772417 12:-0.374679 13:-0.777669 14:-0.681743 15:-0.414485 16:-0.752693 17:-0.159414 18:0.0452499 19:0.0788405 20:-0.521183 21:0.0572051 22:0.101225 23:-0.0148951 
-23 1:-0.28169 2:-0.0459634 3:-0.563584 4:-0.426608 5:0.515152 6:-0.797874 7:-0.513112 8:0.0450755 9:0.186523 10:-0.903219 11:-0.723475 12:-0.438805 13:-0.588163 14:-0.358758 15:-0.413083 16:-0.479343 17:-0.212341 18:-0.224513 19:-0.151953 20:-0.527187 21:-0.218094 22:-0.138186 23:-0.614929 
-23 1:-0.788732 2:0.790488 3:-0.559753 4:-0.495206 5:-0.939394 6:-0.17066 7:-0.632106 8:0.833515 9:0.433399 10:0.632397 11:-0.585965 12:-0.691524 13:-0.73313 14:-0.363704 15:-0.759108 16:-1 17:0.464984 18:0.300452 19:0.543508 20:-0.98424 21:0.280048 22:0.52943 23:-0.964455 
-15.07947862126944 1:-0.690141 2:-1 3:-0.647847 4:-0.643423 5:0.575758 6:-0.684374 7:-0.888473 8:-1 9:-1 10:-0.932119 11:0.0350877 12:0.271809 13:-0.677748 14:0.549411 15:-0.441374 16:-0.586967 17:-1 18:-0.932564 19:-1 20:-0.655499 21:-0.906041 22:-1 23:-0.309411 
-19.22360662105636 1:0.28169 2:0.00994371 3:-0.754321 4:-0.668537 5:-0.212121 6:-0.703139 7:-0.502971 8:0.335834 9:0.349933 10:-0.602708 11:-0.559129 12:-0.570287 13:-0.686997 14:-0.462558 15:-0.521576 16:-0.588922 17:0.17958 18:0.0212411 19:0.122883 20:-0.648767 21:0.0173803 22:0.144439 23:-0.634394 
-23 1:-0.352113 2:0.065339 3:-0.665834 4:-0.595223 5:0.030303 6:-0.713438 7:-0.608305 8:0.290538 9:0.341669 10:-0.746699 11:-0.665205 12:-0.402254 13:-0.655677 14:-0.263876 15:-0.418671 16:-0.726929 17:0.00746679 18:-0.00133989 19:0.168015 20:-0.750698 21:-0.00719536 22:0.171442 23:-0.49106 
-23 1:0.15493 2:0.187424 3:-0.666263 4:-0.606638 5:0.454545 6:-0.650294 7:-0.34343 8:0.18229 9:0.301238 10:-0.678327 11:-0.82768 12:0.0259277 13:-0.632601 14:-0.171525 15:-0.0360742 16:-0.828698 17:-0.0516552 18:0.109278 19:0.0437059 20:-0.512477 21:0.109275 22:0.0653134 23:-0.285545 
23 1:-0.422535 2:0.109683 3:-0.776512 4:-0.721114 5:0.151515 6:-0.968818 7:-0.786697 8:0.23634 9:0.302845 10:-0.505699 11:-0.607352 12:-0.554782 13:-0.430039 14:-0.510786 15:-0.507751 16:-0.869292 17:-0.0714864 18:0.0504285 19:0.185214 20:-0.563006 21:0.0535837 22:0.191212 23:-0.555687 
-21.73351012610952 1:-0.591549 2:0.0320199 3:-0.534528 4:-0.482018 5:0.575758 6:-0.984067 7:-0.679689 8:0.246453 9:0.379646 10:-0.911585 11:0.263158 12:0.210874 13:-0.554259 14:-0.199819 15:-0.537572 16:-0.464481 17:0.016097 18:0.0124374 19:-0.178819 20:-0.44103 21:0.00458054 22:-0.174572 23:0.161137 
23 1:0.408451 2:0.0918696 3:-0.349828 4:-0.237416 5:-0.030303 6:-0.518256 7:-0.371193 8:0.218502 9:0.197536 10:-0.48219 11:-0.782651 12:-0.535233 13:-0.720887 14:-0.266411 15:-0.513833 16:-0.733606 17:0.0561019 18:0.339202 19:0.4418 20:-0.579924 21:0.333024 22:0.439135 23:-0.413507 
-23 1:-0.112676 2:0.259745 3:-0.719881 4:-0.569453 5:0.151515 6:-0.812502 7:-0.552793 8:0.446622 9:0.489567 10:-0.661707 11:-0.80117 12:-0.632373 13:-0.488467 14:-0.607343 15:-0.609958 16:-0.707005 17:0.00662654 18:0.212319 19:0.320795 20:-0.587977 21:0.208568 22:0.308552 23:-0.122094 
-23 1:0.0422535 2:-0.173301 3:-0.682869 4:-0.442658 5:0.636364 6:-0.852342 7:-0.453876 8:0.129721 9:0.149095 10:-0.854153 11:-0.797271 12:0.363212 13:-0.56411 14:-0.197494 15:0.431911 16:-0.812683 17:-0.229066 18:-0.374181 19:-0.146456 20:-0.679788 21:-0.371176 22:-0.144705 23:-0.372038 
-23 1:-0.352113 2:0.467076 3:-0.496706 4:-0.402808 5:-1 6:-0.703626 7:-0.837583 8:0.609398 9:0.339737 10:0.240921 11:-0.631211 12:-0.869917 13:-0.922674 14:-0.916869 15:-0.876368 16:-1 17:0.321657 18:0.54222 19:0.731269 20:-0.763997 21:0.518817 22:0.718865 23:-0.467736 
-23 1:-0.732394 2:0.732115 3:-0.442759 4:-0.357355 5:-0.939394 6:-0.21353 7:-0.69544 8:0.481178 9:0.466161 10:0.214873 11:-0.673223 12:-0.831857 13:-0.835866 14:-0.819769 15:-0.840915 16:-1 17:0.615326 18:0.613205 19:0.613567 20:-1 21:0.591807 22:0.597792 23:-1 
23 1:-0.661972 2:0.534065 3:-0.483047 4:-0.462506 5:-1 6:-0.812116 7:-0.888092 8:0.65295 9:0.258983 10:1 11:-0.51781 12:-1 13:-0.933629 14:-0.89743 15:-1 16:-1 17:0.808175 18:0.437623 19:0.768758 20:-0.987392 21:0.419075 22:0.751713 23:-0.971564 
-23 1:-0.464789 2:0.750552 3:-0.766042 4:-0.608512 5:-1 6:-0.087321 7:-0.695952 8:0.771275 9:0.306444 10:0.552568 11:-0.54386 12:-0.800105 13:-0.686744 14:-0.548729 15:-0.805036 16:-1 17:0.611553 18:0.52918 19:0.914674 20:-1 21:0.509146 22:0.896435 23:-1 
23 1:-0.549296 2:1 3:-0.591984 4:-0.465755 5:-0.939394 6:-0.479289 7:-0.713286 8:0.746176 9:0.717919 10:0.57971 11:-0.677063 12:-0.89403 13:-0.974801 14:-0.724973 15:-0.893092 16:-1 17:0.503447 18:0.579011 19:0.887261 20:-0.945364 21:0.567836 22:0.867311 23:-0.894011 
-23 1:0.0422535 2:0.424387 3:0.128307 4:0.61783 5:-0.636364 6:0.203235 7:-0.523472 8:0.317007 9:0.301392 10:0.480169 11:-0.712671 12:-0.849532 13:-0.793593 14:-0.790772 15:-0.913889 16:-1 17:0.394697 18:0.514997 19:0.259736 20:-0.99083 21:0.515109 22:0.246233 23:-0.979319 
