svm_type epsilon_svr
kernel_type linear
nr_class 2
total_sv 80
rho -0.0316983
SV
14 1:-0.185185 2:0.176539 3:-0.66854 4:-0.886121 5:0.441364 6:-0.158134 7:-0.629493 8:0.627267 9:0.357112 10:-0.627083 11:-0.128226 12:-0.427018 13:-0.722222 14:-0.803019 
14 1:0.259259 2:0.164927 3:-0.629747 4:0.38331 5:0.0223872 6:0.115618 7:-0.262895 8:0.389393 9:-0.293081 10:-0.233661 11:0.0811866 12:0.896294 13:-0.611111 14:-0.763453 
11.75989685906243 1:-0.037037 2:0.209794 3:0.119122 4:0.327371 5:0.35168 6:-0.336092 7:-0.439243 8:-0.514447 9:-0.256554 10:-0.423291 11:0.440459 12:0.310192 13:-0.636111 14:-0.547914 
14 1:-0.333333 2:0.258313 3:-0.725201 4:-0.2582 5:0.518301 6:-0.0111083 7:-0.642102 8:0.0230636 9:-0.352632 10:-0.639407 11:0.298182 12:0.393855 13:-0.509259 14:-0.634255 
-14 1:0.111111 2:-0.513805 3:-0.452615 4:-0.810964 5:0.141853 6:-0.360082 7:-0.913028 8:-0.0333105 9:-0.233825 10:-0.912891 11:-0.37055 12:0.268257 13:-0.604167 14:-0.696879 
14 1:-0.555556 2:-0.645118 3:-0.986197 4:-0.915861 5:-0.183379 6:-0.145974 7:-0.840084 8:-0.0357776 9:-0.116125 10:-0.814871 11:0.0332803 12:0.618371 13:-0.782407 14:-0.919253 
14 1:-0.333333 2:0.11758 3:-0.622523 4:-0.891679 5:0.114846 6:0.0975491 7:-0.783903 8:-0.0154891 9:-0.4051 10:-0.764361 11:0.441076 12:0.159267 13:-0.618687 14:-0.672734 
-7.998131397777951 1:0.481481 2:0.360233 3:-0.453873 4:0.671871 5:0.0792435 6:-0.235338 7:0.172015 8:-0.361924 9:0.160969 10:0.209338 11:-0.684823 12:0.487977 13:-0.486111 14:-0.629555 
14 1:-0.703704 2:-0.0444075 3:-0.190985 4:-0.741136 5:-0.372448 6:-0.637233 7:-0.735297 8:-0.215723 9:-0.241942 10:-0.732854 11:0.719941 12:-0.169239 13:-0.808333 14:-0.898808 
14 1:-0.111111 2:-0.256997 3:-0.782549 4:-0.782437 5:-0.0148402 6:0.0523101 7:-0.63139 8:0.17597 9:-0.276644 10:-0.804051 11:0.392557 12:0.251711 13:-0.547222 14:-0.642108 
14 1:0.037037 2:-0.309558 3:-0.843343 4:-0.8987 5:-0.239784 6:-0.0191875 7:-0.305208 8:-0.149152 9:0.0332331 10:-0.383069 11:0.653873 12:0.267789 13:-0.416667 14:-0.665746 
14 1:-0.555556 2:-0.233564 3:-0.475465 4:-0.727678 5:-0.491125 6:-0.775656 7:-0.876696 8:-0.0157601 9:-0.172366 10:-0.867132 11:0.0934403 12:-0.0534035 13:-0.642857 14:-0.816184 
14 1:-0.703704 2:1 3:0.743118 4:-0.880494 5:-0.474158 6:-0.706642 7:-0.876696 8:0.743872 9:-0.181063 10:-0.867882 11:-0.111835 12:-0.395495 13:-0.821429 14:-0.861959 
14 1:-0.037037 2:0.226329 3:-0.221587 4:-0.232954 5:0.0294942 6:-0.092386 7:-0.489392 8:-0.223796 9:-0.0930217 10:-0.480803 11:0.0675605 12:0.547669 13:-0.524074 14:-0.493128 
-14 1:-0.037037 2:0.465629 3:-0.138437 4:-0.630734 5:-0.479844 6:-0.506478 7:-0.672804 8:0.0288236 9:-0.281079 10:-0.673699 11:0.433846 12:0.506649 13:-0.506944 14:-0.785733 
-8.75447121792533 1:-0.259259 2:0.335478 3:0.209061 4:-0.601531 5:0.311407 6:-0.52975 7:-0.649868 8:-0.0533562 9:-0.207154 10:-0.633834 11:-0.085638 12:-0.974461 13:-0.818452 14:-0.63411 
14 1:-0.111111 2:-0.0126328 3:-0.237124 4:-0.615012 5:-0.0826391 6:-0.285941 7:-0.803051 8:-0.0384699 9:-0.241942 10:-0.819444 11:-0.242539 12:-0.832135 13:-0.784722 14:-0.739137 
3.170797714032769 1:-0.111111 2:-0.0699839 3:0.0882402 4:-0.707255 5:-0.807557 6:-0.121194 7:-0.876696 8:-0.291507 9:-0.0624348 10:-0.883635 11:0.570011 12:-0.750657 13:0.116667 14:-0.647748 
-14 1:0.185185 2:0.0856526 3:-0.407266 4:-0.0404387 5:0.897974 6:-0.463336 7:-0.991583 8:0.15448 9:-0.203588 10:-0.988764 11:-0.934092 12:-0.409849 13:-0.659722 14:-0.945589 
-14 1:-0.555556 2:-0.0222117 3:-0.653653 4:-0.623858 5:0.458022 6:-0.383382 7:-0.938979 8:-0.00606636 9:-0.452991 10:-0.922322 11:0.0423152 12:-0.778428 13:-0.75744 14:-0.803785 
14 1:-0.333333 2:0.330249 3:-0.067467 4:-0.666241 5:0.0626604 6:-0.621167 7:-0.829563 8:-0.39859 9:-0.178019 10:-0.81087 11:-0.171029 12:-1 13:-0.845833 14:-0.988377 
-3.47721806285211 1:-0.62963 2:-1 3:-0.386393 4:-0.715416 5:-0.144121 6:-0.394503 7:-0.515623 8:0.0599919 9:-0.26412 10:-0.51681 11:0.123488 12:0.102973 13:-0.661905 14:-0.801187 
-14 1:-0.703704 2:0.300849 3:0.242068 4:-0.941402 5:0.0993801 6:-0.389997 7:-0.77178 8:0.615931 9:-0.468066 10:-0.763718 11:0.0402265 12:0.223878 13:-0.8375 14:-0.806857 
-14 1:-0.555556 2:-0.733862 3:-0.168209 4:-0.165266 5:0.129467 6:-0.475586 7:-0.562336 8:0.159816 9:-0.127141 10:-0.552818 11:0.29672 12:0.0617978 13:-0.798611 14:-0.836553 
14 1:-0.777778 2:-0.323116 3:-0.520835 4:-0.229008 5:0.979469 6:0.00833311 7:-0.883124 8:-0.361199 9:-0.0471279 10:-0.858023 11:-0.326052 12:-0.470121 13:-0.847222 14:-0.852679 
-14 1:-0.703704 2:0.396391 3:1 4:-0.920045 5:-0.2003 6:-0.579616 7:-0.800105 8:-0.090005 9:-0.187151 10:-0.780864 11:0.339226 12:-0.259135 13:-0.680952 14:-0.70466 
-14 1:-0.481481 2:0.165718 3:-0.0795171 4:-0.421662 5:-0.307583 6:-0.0494269 7:-0.633176 8:-0.0876404 9:-0.196283 10:-0.625833 11:0.139811 12:-0.360209 13:-0.695238 14:-0.693266 
-14 1:-0.777778 2:0.0151667 3:-1 4:-0.0182748 5:0.164528 6:0.0305109 7:0.113098 8:-0.0938744 9:-0.389714 10:-0.240754 11:0.0640018 12:-0.239334 13:-0.766026 14:-0.864141 
4.060689253738362 1:-0.703704 2:0.117826 3:-0.524567 4:-0.816984 5:0.152344 6:0.109163 7:-0.732351 8:-0.0951952 9:-0.168887 10:-0.828874 11:0.20806 12:-0.64878 13:-0.525 14:-0.699034 
14 1:-0.555556 2:-0.00705698 3:-0.261518 4:-0.123755 5:-0.124492 6:-0.191327 7:-0.588988 8:0.0562805 9:-0.139665 10:-0.585824 11:-0.513163 12:-0.65189 13:-0.802083 14:-0.916014 
-14 1:-0.703704 2:0.154245 3:0.433989 4:0.443891 5:0.813638 6:0.378564 7:-0.0415571 8:0.2384 9:-0.289428 10:-0.0532154 11:-0.741843 12:-0.179293 13:-0.752778 14:-0.494213 
14 1:-1 2:0.356033 3:-0.28967 4:-0.383142 5:-0.0619497 6:0.337261 7:-0.925302 8:-0.114113 9:-0.577997 10:-0.878384 11:-0.0934013 12:-0.532642 13:-0.857407 14:-0.948468 
-14 1:-0.407407 2:-0.252182 3:-0.504098 4:-0.440961 5:-0.588818 6:-0.148951 7:-0.728669 8:-0.0418707 9:0.0685432 10:-0.732854 11:0.526828 12:-0.677703 13:-0.783333 14:-0.672673 
-14 1:-0.481481 2:-0.169473 3:-0.318382 4:-0.0568078 5:0.58337 6:0.309487 7:-0.213887 8:0.700941 9:-0.0430693 10:-0.183742 11:-0.49958 12:-0.316279 13:-0.722222 14:-0.747541 
14 1:0.925926 2:0.117871 3:-0.231346 4:-0.548507 5:-0.451415 6:0.53191 7:-0.480975 8:0.0293346 9:-0.171697 10:-0.455798 11:-0.510664 12:0.408293 13:-0.555556 14:-0.56288 
8.320437945144393 1:0.925926 2:-0.143294 3:-0.600111 4:-0.464429 5:-0.539859 6:0.539296 7:-0.477451 8:-0.459637 9:-0.399411 10:-0.452209 11:-0.694439 12:0.408161 13:-0.263889 14:-0.389421 
-14 1:-0.62963 2:0.35678 3:0.379626 4:-0.991581 5:-0.0461563 6:-0.251824 7:-0.86344 8:0.00775859 9:-0.45589 10:-0.797153 11:0.427212 12:-0.135066 13:-0.766667 14:-0.692921 
-14 1:-0.407407 2:-0.291416 3:-0.951549 4:-0.680509 5:0.380898 6:-0.212168 7:0.113098 8:0.0857689 9:-0.154276 10:0.149326 11:0.294627 12:-0.270377 13:-0.861111 14:-0.970555 
14 1:-0.703704 2:0.218123 3:-0.358805 4:-0.912954 5:0.252655 6:-0.120125 7:-0.715413 8:-0.0186599 9:0.0639772 10:-0.678843 11:0.265161 12:-0.0620846 13:-0.792593 14:-1 
-13.99804155671671 1:-0.555556 2:0.592357 3:0.00258011 4:-0.904432 5:-0.32928 6:-0.211098 7:-0.608627 8:-0.0172752 9:-0.483025 10:-0.585824 11:0.636642 12:-0.0385359 13:-0.711111 14:-0.762538 
-14 1:0.037037 2:0.263343 3:-0.272765 4:-0.521974 5:-0.457169 6:0.362711 7:-0.962125 8:0.0461576 9:-0.33935 10:-0.945898 11:0.747221 12:-0.215854 13:-0.603571 14:-0.652947 
-2.569232537447376 1:0.407407 2:0.099684 3:0.0397718 4:-0.296578 5:-0.797968 6:0.893101 7:-0.833772 8:-0.477771 9:-0.568663 10:-0.815157 11:0.503578 12:0.0946482 13:-0.8 14:-0.744802 
-14 1:-0.555556 2:-0.291084 3:-0.743368 4:-0.475498 5:-0.0145694 6:0.0427685 7:-0.534982 8:0.435054 9:-0.302822 10:-0.525812 11:-0.131248 12:0.340869 13:-0.775 14:-0.825635 
-14 1:-0.777778 2:-0.197748 3:-0.145439 4:-0.896879 5:0.0871402 6:-0.286646 7:-0.851657 8:0.152999 9:-0.375877 10:-0.84302 11:0.0442073 12:0.202089 13:-0.873737 14:-0.894577 
-7.310621008440676 1:-0.185185 2:-0.42852 3:-0.648625 4:-0.352169 5:-0.980721 6:-0.319906 7:-0.606523 8:-0.601239 9:-0.29714 10:-0.615831 11:0.867271 12:0.269142 13:-0.77381 14:-0.742514 
14 1:0.259259 2:0.0260073 3:0.117795 4:-0.350397 5:-0.610139 6:-0.562751 7:-0.960021 8:-0.400337 9:0.1071 10:-0.943755 11:-0.658364 12:0.214015 13:-0.84375 14:-0.469968 
14 1:0.333333 2:0.317848 3:0.843301 4:-0.460835 5:0.181111 6:0.520957 7:-0.476065 8:0.131589 9:-0.307692 10:-0.450797 11:-0.841821 12:0.176469 13:-0.486111 14:-0.40176 
-14 1:0.481481 2:0.361614 3:-0.0552795 4:-0.688876 5:0.15979 6:0.505595 7:-0.929721 8:-0.539269 9:-0.272382 10:-0.912891 11:-0.238874 12:-0.211287 13:-0.852679 14:-0.668039 
14 1:0.407407 2:0.069926 3:0.162449 4:-0.6232 5:0.0820863 6:-0.0545966 7:-0.187375 8:0.193313 9:0.0746311 10:-0.360778 11:-0.77039 12:-0.471467 13:-0.42619 14:-0.385554 
14 1:0.407407 2:0.375503 3:-0.0221704 4:-0.553233 5:-0.708059 6:0.186701 7:-0.766439 8:-0.405897 9:0.46426 10:-0.754073 11:0.242784 12:-0.968886 13:-0.788095 14:-0.692588 
14 1:0.037037 2:-0.275834 3:-0.565821 4:-0.531436 5:0.0998324 6:0.970716 7:-0.716748 8:-0.552565 9:0.166793 10:-0.695957 11:0.54301 12:0.140264 13:-0.4375 14:-0.52009 
-14 1:0.481481 2:0.503366 3:0.47499 4:-0.773847 5:0.42433 6:0.286303 7:-0.950552 8:0.136113 9:0.506876 10:-0.93411 11:-0.00475299 12:0.0935456 13:-0.641667 14:-0.495061 
-14 1:0.407407 2:0.247664 3:0.553484 4:-0.569813 5:-0.0145694 6:0.220203 7:-0.96949 8:-0.319811 9:0.379029 10:-0.9534 11:-0.741899 12:0.177882 13:-0.763889 14:-0.234076 
-14 1:0.185185 2:0.225341 3:0.206151 4:-0.217184 5:-0.8731 6:0.574738 7:-0.598996 8:-0.389209 9:0.38049 10:-0.548317 11:0.493604 12:0.128995 13:-0.631944 14:-0.357608 
1.036858545969749 1:0.481481 2:0.128992 3:0.285132 4:-0.620232 5:-0.0794804 6:0.422115 7:-0.903209 8:0.170311 9:0.00766366 10:-0.885886 11:-0.556091 12:0.123193 13:1 14:1 
-1.690912267012606 1:0.185185 2:0.499454 3:0.46486 4:-0.36154 5:-0.685948 6:0.526652 7:-0.571804 8:-0.560181 9:0.835625 10:-0.593326 11:-0.436584 12:0.6404 13:-0.488095 14:0.0634792 
-11.72968003519416 1:0.333333 2:0.626788 3:0.369156 4:-0.657619 5:0.536937 6:0.540393 7:-0.816307 8:-0.365082 9:0.619503 10:-0.872383 11:-0.665381 12:0.699069 13:-0.0416667 14:-0.515753 
14 1:-0.185185 2:0.0775671 3:0.726995 4:-0.373645 5:0.349311 6:0.316036 7:-0.446607 8:-0.746868 9:0.858759 10:-0.420791 11:-0.00377868 12:0.559527 13:-0.571429 14:-0.00554249 
14 1:0.555556 2:-0.137156 3:-0.0832928 4:-0.821134 5:-0.525803 6:-0.0395398 7:-0.938127 8:-0.777691 9:0.00563434 10:-0.944494 11:0.651519 12:0.521693 13:-0.857143 14:-0.849542 
-14 1:0.555556 2:-0.0805414 3:-0.731395 4:-0.454145 5:0.0741294 6:0.0845475 7:-0.856917 8:-0.497117 9:-0.0941712 10:-0.838733 11:0.312573 12:0.151652 13:-0.916667 14:-0.916602 
-14 1:0.333333 2:0.370457 3:0.202573 4:-0.445437 5:-0.294384 6:0.637868 7:0.461073 8:-1 9:0.331543 10:-0.113805 11:1 12:1 13:-0.136574 14:-0.0754827 
-14 1:0.555556 2:0.248404 3:-0.0578534 4:0.279051 5:0.0966163 6:0.885855 7:-0.78243 8:-0.461278 9:0.947818 10:-0.762861 11:0.0464251 12:0.306711 13:-0.897917 14:-0.112263 
-14 1:0.555556 2:-0.121604 3:0.0248124 4:-0.630131 5:-0.840723 6:0.197879 7:-0.956234 8:-0.22412 9:-0.345148 10:-0.984656 11:-0.2622 12:-0.300044 13:-0.702381 14:-0.413791 
2.211734020909136 1:1 2:0.315485 3:0.201042 4:-0.373375 5:-0.346317 6:0.493973 7:-0.808206 8:-0.54897 9:-0.129315 10:-0.861452 11:-0.768495 12:0.444617 13:-0.915278 14:-0.543394 
14 1:0.555556 2:0.385359 3:0.425187 4:-0.0909543 5:0.175189 6:0.313903 7:-0.191303 8:-0.593495 9:-0.00329466 10:-0.445796 11:-0.0318013 12:0.338551 13:-0.939394 14:-0.426949 
14 1:0.481481 2:0.0164321 3:0.0387101 4:-0.658483 5:0.946302 6:0.81323 7:-0.914992 8:-0.279729 9:-0.294125 10:-0.897888 11:-0.156779 12:-0.106054 13:-0.808333 14:-0.120436 
14 1:0.777778 2:0.205507 3:0.407772 4:-0.897903 5:-0.684526 6:1 7:-0.940598 8:-0.799334 9:-0.203675 10:-0.92397 11:0.430336 12:0.996308 13:-0.824074 14:-0.855735 
0.477542468250998 1:0.407407 2:0.518126 3:0.392371 4:-0.867765 5:-0.219252 6:0.79849 7:-0.80747 8:0.356025 9:0.784486 10:-0.788366 11:0.591606 12:-0.429721 13:-0.558333 14:-0.508983 
14 1:0.037037 2:0.462861 3:-0.0917042 4:0.128489 5:-0.659099 6:-0.135868 7:-0.595862 8:-0.486537 9:-0.439192 10:-0.668556 11:0.807941 12:0.426595 13:-0.757937 14:-0.668738 
-14 1:0.555556 2:0.132779 3:0.0208364 4:-0.661467 5:-0.581711 6:0.439778 7:-0.375743 8:-0.075702 9:0.048619 10:-0.348608 11:-0.334665 12:0.755318 13:-0.666667 14:-0.463865 
14 1:-0.037037 2:0.225363 3:0.778983 4:-0.41103 5:0.993683 6:-0.0292638 7:-0.953288 8:0.118523 9:-0.21272 10:-0.936896 11:0.248148 12:-0.301173 13:-0.611111 14:-0.290127 
-1.509648723740755 1:0.407407 2:0.129798 3:-0.150278 4:0.114639 5:-0.0518419 6:0.707443 7:0.739085 8:-0.357056 9:0.0441914 10:-0.900889 11:-0.19213 12:0.639121 13:-0.206349 14:-0.19678 
-14 1:0.481481 2:0.387767 3:0.0647668 4:-0.882965 5:0.788368 6:-0.0236219 7:-0.945292 8:-0.885746 9:0.0320155 10:-0.966902 11:0.419816 12:0.15712 13:-0.717593 14:-0.845446 
-14 1:0.555556 2:-0.165061 3:-0.934951 4:-1 5:-0.0861926 6:0.163511 7:-0.737507 8:-0.551997 9:0.890417 10:-0.690846 11:0.30604 12:0.0131015 13:-0.510417 14:-0.56728 
-14 1:0.555556 2:0.338783 3:0.0381481 4:-0.897559 5:-0.850989 6:0.52494 7:-0.976854 8:-0.565554 9:-0.386024 10:-0.978905 11:-0.0513648 12:-0.138447 13:-0.541667 14:-0.302995 
-14 1:0.703704 2:0.298599 3:0.15795 4:-0.556217 5:-0.858209 6:-1 7:-0.894371 8:-0.168516 9:-0.715759 10:-0.843377 11:-0.752998 12:-0.344495 13:-0.805769 14:-0.743276 
14 1:0.333333 2:0.225371 3:0.477968 4:-0.532539 5:0.0920362 6:-0.266179 7:0.0983693 8:-0.64548 9:-0.263859 10:-0.240754 11:0.490571 12:-0.675848 13:-0.822917 14:-0.455146 
14 1:-0.185185 2:-0.188847 3:-0.442206 4:-0.692935 5:-0.367546 6:0.0819152 7:-0.868841 8:1 9:-0.291753 10:-0.850879 11:-0.151845 12:-0.243136 13:-1 14:-0.745433 
14 1:0.111111 2:0.193108 3:0.321684 4:-0.803938 5:-0.441939 6:-0.403459 7:-0.51657 8:0.63582 9:0.118117 10:-0.503307 11:-0.570942 12:0.011172 13:-1 14:-0.638727 
-14 1:-0.111111 2:-0.333039 3:-0.562805 4:-0.931084 5:0.218541 6:-0.034999 7:-1 8:0.298047 9:-0.778378 10:-1 11:0.119157 12:-0.363838 13:-1 14:-0.865566 
