svm_type epsilon_svr
kernel_type linear
nr_class 2
total_sv 96
rho -15.5641
SV
24 1:0.941612 2:-1 3:-1 4:-0.465736 5:-0.153846 6:-1 7:-0.356777 8:-0.71059 9:-0.906705 10:-0.201572 11:-0.50532 12:-0.365316 13:-0.573369 14:0.0535241 15:-0.515502 16:-0.427018 17:-0.154447 18:-0.39334 19:-0.453787 20:-0.784428 21:-0.418688 22:-0.163424 23:0.232472 24:-0.700298 
-8.909835542818044 1:0.896984 2:0.151942 3:0.17222 4:1 5:0.769231 6:1 7:-0.181202 8:-0.319532 9:-0.122118 10:-0.417752 11:0.577359 12:-0.181699 13:-0.532668 14:0.0850556 15:0.584502 16:0.430797 17:0.1629 18:0.156488 19:-0.0923039 20:1 21:0.423519 22:0.156387 23:0.303774 24:-0.808854 
24 1:0.821241 2:-0.0813329 3:-0.204991 4:0.312243 5:0.307692 6:-0.157895 7:-1 8:-0.597813 9:-0.404926 10:-0.787076 11:-0.032967 12:-1 13:-0.866925 14:-0.459636 15:-0.0374255 16:0.896294 17:0.0521282 18:-0.169592 19:-0.454733 20:0.0849261 21:0.883504 22:0.0492882 23:0.466521 24:-0.775193 
24 1:0.878023 2:-0.140033 3:0.19439 4:-0.18804 5:-0.0769231 6:0.157895 7:-0.706286 8:-0.493614 9:-0.559179 10:-0.587396 11:-0.27633 12:-0.713265 13:-0.720867 14:-0.522346 15:-0.381355 16:0.310192 17:-0.336204 18:0.0529135 19:-0.228621 20:0.218949 21:0.311355 22:-0.336075 23:0.450278 24:-0.559553 
7.341425412376855 1:-0.425582 2:0.117395 3:-0.519973 4:0.813044 5:-0.0769231 6:-0.894737 7:-0.252301 8:-0.483921 9:-0.468104 10:-0.807068 11:-0.596581 12:-0.263274 13:-0.927027 14:-0.535889 15:-0.676763 16:0.152396 17:-0.0165279 18:-0.130851 19:-0.30327 20:-0.456559 21:0.167591 22:-0.0253437 23:0.43401 24:-0.693986 
24 1:0.906601 2:-0.316016 3:-0.299299 4:0.211265 5:-0.384615 6:-0.684211 7:-0.303567 8:-0.414129 9:-0.228182 10:-0.822589 11:-0.551369 12:-0.311522 13:-0.895533 14:-0.473473 15:-0.532912 16:0.393855 17:-0.0575064 18:0.986732 19:-0.433096 20:0.399002 21:0.391336 22:-0.0595988 23:0.271051 24:-0.637544 
-24 1:0.968721 2:-0.307313 3:-0.699462 4:-0.420434 6:-0.894737 7:-0.727696 8:-0.565416 9:-0.588675 10:-0.826842 11:-0.873016 12:-0.733345 13:-0.877027 14:-0.332273 15:-0.809483 16:0.268257 17:-0.050958 18:0.280416 19:-0.462306 20:0.370538 21:0.268141 22:-0.0585153 23:0.418326 24:-0.767379 
24 1:0.908161 2:-0.515228 3:-0.997997 4:0.46137 5:-0.615385 6:-0.947368 7:-0.564048 8:-0.704666 9:-0.244737 10:-0.735491 11:-0.788523 12:-0.567163 13:-0.810766 14:-0.472938 15:-0.79878 16:0.618371 17:0.222327 18:-0.0527153 19:-0.609983 20:-0.324492 21:0.604296 22:0.220296 23:0.0399231 24:-0.800439 
24 1:0.978526 2:-0.604141 3:-0.690074 4:0.878173 5:-0.461538 6:-0.894737 7:-0.435617 8:-0.54818 9:-0.317375 10:-0.685324 11:-0.765192 12:-0.442148 13:-0.529724 14:-0.520372 15:-0.741312 16:0.159267 17:0.0717164 18:-0.221117 19:-0.309952 20:-0.239319 21:0.166664 22:0.0689554 23:0.0384964 24:-0.662429 
-24 1:0.955298 2:-0.242924 3:0.418871 4:0.0399406 5:0.461538 6:0.421053 7:-0.438308 8:-0.58334 9:-0.377804 10:-0.554866 11:0.935287 12:-0.440762 13:-0.663054 14:-0.0225225 15:0.994006 16:0.487977 17:-0.0971644 18:0.241391 19:-0.181559 20:0.0286417 21:0.484458 22:-0.097452 23:-0.216655 24:-0.661587 
24 1:0.949268 2:-0.341303 3:-0.750271 4:-0.51686 5:-0.615385 6:-0.947368 7:0.0505826 8:-0.66905 9:-0.59281 10:-0.932903 11:-0.350427 12:0.0462786 13:-0.943527 14:-0.548843 15:-0.335117 16:-0.169239 17:0.317534 18:0.0298637 19:-0.598623 20:-0.322004 21:-0.176536 22:0.310898 23:0.265497 24:-0.849247 
24 1:0.97093 2:-0.527006 3:-0.264019 4:0.21442 5:-0.230769 6:-0.789474 7:-0.684328 8:-0.338259 9:-0.254715 10:-0.785575 11:-0.35742 12:-0.685643 13:-0.930059 14:-0.419449 15:-0.591138 16:0.251711 17:-0.0797692 18:-0.19717 19:-0.264028 20:-0.840965 21:0.262415 22:-0.0836581 23:0.495272 24:-0.718691 
24 1:0.938149 2:-0.354663 3:-0.510822 4:-0.394109 5:-0.0769231 6:-0.947368 7:-0.453925 8:-0.274143 9:-0.00610006 10:-0.586017 11:-0.0647131 12:-0.465021 13:-0.728194 14:-0.206147 15:-0.0773841 16:0.267789 17:-0.0353003 18:-0.0135483 19:-0.0836489 20:-0.576526 21:0.274054 22:-0.0418503 23:0.355939 24:-0.737325 
24 1:0.802917 2:-0.283174 3:-0.762215 4:-0.283701 5:-0.538462 6:-0.894737 7:-0.839019 8:-0.670314 9:-0.699884 10:-0.671073 11:-0.785802 12:-0.837973 13:-0.855753 14:-0.328623 15:-0.781655 16:-0.0534035 17:-0.0144523 18:-0.147141 19:-0.554807 20:-0.466895 21:-0.0620243 22:-0.0180401 23:0.448519 24:-0.682626 
24 1:0.853019 2:-0.249313 3:-0.815643 4:-0.205356 5:-0.692308 6:-0.894737 7:-0.771861 8:-0.630453 9:-0.716352 10:-0.811208 11:-0.802547 12:-0.778175 13:-0.869522 14:-0.42625 15:-0.815477 16:-0.395495 17:0.171226 18:-0.255585 19:-0.683821 20:-0.323535 21:-0.396915 22:0.163044 23:-0.0492106 24:-0.728068 
24 1:0.747469 2:-0.0233718 3:-0.400177 4:-0.100593 6:-0.736842 7:-0.815579 8:0.0352862 9:-0.0551201 10:-0.602813 11:-0.194139 12:-0.813853 13:-0.756663 14:-0.206147 15:-0.157301 16:0.547669 17:-0.432486 18:0.126155 19:-0.252963 20:0.725887 21:0.541635 22:-0.436707 23:0.411385 24:-0.662429 
-24 1:0.75982 2:-0.159617 3:-0.74127 4:-0.354131 5:-0.153846 6:-0.789474 7:-0.980365 8:-0.836121 9:-0.61901 10:-0.834978 11:-0.526252 12:-0.972989 13:-0.864126 14:-0.456545 15:-0.510436 16:0.506649 17:-0.0749607 18:0.0659673 19:-0.264647 20:0.436546 21:0.505119 22:-0.0720784 23:0.684757 24:-0.718582 
-24 1:0.94285 2:-0.231479 3:-0.345756 4:-0.888335 5:-0.307692 6:-0.736842 7:0.326341 8:-0.642792 9:-0.615956 10:-0.739209 11:-0.467643 12:0.342797 13:-0.855299 14:-0.48525 15:-0.437012 16:-0.974461 17:-0.542363 18:-0.314546 19:-0.575904 20:-0.6159 21:-0.959816 22:-0.558631 23:-0.120563 24:-0.30394 
-11.62029737282334 1:-0.512556 2:-0.228304 3:-0.371006 4:-0.0515391 5:-0.461538 6:-0.684211 7:-0.673544 8:-0.580464 9:-0.40026 10:-0.846498 11:-0.326984 12:-0.675367 13:-0.897985 14:-0.378378 15:-0.33212 16:0.5208 17:-0.046754 18:-0.0204377 19:-0.48178 20:0.623515 21:0.518772 22:-0.0539419 23:0.372588 24:-0.74574 
24 1:0.898334 2:-0.575093 3:-0.368963 4:-0.529707 5:-0.153846 6:-0.789474 7:-0.0143416 8:-0.700425 9:-0.644426 10:-0.809118 11:-0.702076 12:-0.0170952 13:-0.883117 14:-0.527645 15:-0.73242 16:-0.832135 17:-0.128118 18:-0.176244 19:-0.598623 20:-0.577141 21:-0.826866 22:-0.132544 23:-0.0674474 24:-0.532729 
15.03105820455183 1:0.985892 2:-0.206754 3:-0.303984 4:-0.21451 5:-0.0769231 6:-0.842105 7:0.224635 8:-0.350739 9:-0.436338 10:-0.598951 11:-0.852259 12:0.237118 13:-0.762128 14:-0.391627 15:-0.838596 16:-0.750657 17:-1 18:-0.703365 19:0.340988 20:-0.74366 21:-0.768824 22:-1 23:-0.414739 24:-0.682626 
-24 1:0.923913 2:-0.35129 3:-0.19818 4:-0.698944 5:0.153846 6:0.157895 7:-0.172609 8:-0.864674 9:-1 10:-0.884429 11:-0.995116 12:-0.180711 13:-0.91339 14:-0.52105 15:-0.976453 16:-0.409849 17:-0.242383 18:-0.321181 19:-0.353253 20:-0.126393 21:-0.397601 22:-0.242722 23:0.161551 24:-0.716888 
24 1:0.87754 2:-0.431416 3:-0.359406 4:-0.623077 5:-0.538462 6:-0.684211 7:0.3614 8:-0.7631 9:-0.610899 10:-0.91237 11:-0.8779 12:0.365524 13:-0.99796 14:-0.540011 15:-0.856577 16:-0.778428 17:-0.39656 18:-0.305087 19:-0.60836 20:-0.554747 21:-0.782395 22:-0.408017 23:-0.0700827 24:-0.497184 
20.80702276802236 1:0.874572 2:-0.545307 3:-0.391738 4:-0.788398 5:-0.307692 6:-0.789474 7:0.18863 8:-0.704821 9:-0.603186 10:-0.79748 11:-0.76173 12:0.188623 13:-0.862823 14:-0.3298 15:-0.737772 16:-1 17:0.24306 18:-0.511762 19:-0.71222 20:-0.947502 21:-1 22:0.232657 23:-0.0435882 24:-0.733117 
-9.484832216934834 1:0.879489 2:-0.519526 3:-0.628164 4:-0.514287 5:-0.615385 6:-0.842105 7:-0.546281 8:-0.704117 9:-0.339325 10:-0.758831 11:-0.451526 12:-0.556583 13:-0.846762 14:-0.379703 15:-0.444504 16:0.102973 17:-0.272858 18:-0.155246 19:-0.524406 20:-0.269943 21:0.102403 22:-0.277828 23:0.355914 24:-0.832296 
-24 1:0.918159 2:-0.065699 3:-0.922152 4:-0.7083 5:-0.692308 6:-0.947368 7:-0.71658 8:-0.772413 9:-0.52961 10:-0.984744 11:-0.68254 12:-0.721118 13:-0.977318 14:-0.626568 15:-0.676763 16:0.223878 17:-0.0250481 18:-0.011655 19:-0.644062 20:-0.137877 21:0.215965 22:-0.0352284 23:0.158239 24:-0.815165 
-24 1:0.934743 2:-0.303982 3:-0.359561 4:-0.679532 5:-0.615385 6:-0.473684 7:-0.207186 8:-0.360837 9:-0.0598219 10:-0.841139 11:-0.287633 12:-0.213062 13:-0.8557 14:-0.36513 15:-0.252917 16:0.0617978 17:-0.214621 18:-0.17185 19:-0.71222 20:-0.387655 21:0.0639537 22:-0.227037 23:0.400116 24:-0.855559 
24 1:0.939425 2:-0.609242 3:-0.467916 4:-0.851621 5:-0.769231 6:-0.0526316 7:0.219851 8:-0.834905 9:-0.442527 10:-0.726012 11:-0.848596 12:0.204331 13:-0.831575 14:-0.227345 15:-0.826608 16:-0.470121 17:0.169005 18:0.208254 19:-0.74062 20:-0.0373915 21:-0.456173 22:0.15953 23:0.213081 24:-0.783608 
-24 1:0.917484 2:-0.526237 3:-0.532063 4:-0.625116 5:-0.692308 6:-0.894737 7:0.0433114 8:-0.695411 9:-0.508953 10:-0.797976 11:-0.782662 12:0.0469945 13:-0.861712 14:-0.332273 15:-0.771166 16:-0.259135 17:0.0088002 18:-0.0994532 19:-0.575904 20:-0.762937 21:-0.253571 22:-0.0102131 23:0.745444 24:-0.476873 
-24 1:0.891538 2:-0.500776 3:-0.399433 4:-0.259001 5:-0.461538 6:-0.631579 7:0.36574 8:-0.617051 9:-0.693238 10:-0.657664 11:-0.509506 12:0.351967 13:-0.863298 14:-0.441088 15:-0.509793 16:-0.360209 17:-0.0514577 18:-0.194894 19:-0.439587 20:-0.394753 21:-0.351575 22:-0.0567171 23:0.251552 24:-0.667839 
24 1:0.921103 2:-0.740199 3:-0.308511 4:-0.211905 5:-0.692308 6:0.263158 7:0.14348 8:-0.94048 9:-0.709262 10:-0.880922 11:0.352869 12:0.134082 13:-0.958827 14:-0.478184 15:0.168361 16:-0.239334 17:-0.0952324 18:-0.410074 19:-0.445267 20:0.600383 21:-0.235198 22:-0.100952 23:-0.142356 24:-0.758363 
3.226872436492002 1:0.946985 2:-0.622395 3:-0.703403 4:-0.417028 5:-0.692308 6:-0.842105 7:0.298959 8:-0.71257 9:-0.408829 10:-0.698563 11:-0.496947 12:0.295145 13:-0.787276 14:-0.441088 15:-0.522637 16:-0.64878 17:0.0869911 18:0.033638 19:-0.230568 20:-0.468617 21:-0.645984 22:0.0869572 23:0.0389673 24:-0.616987 
24 1:0.889274 2:-0.717839 3:-0.332709 4:-0.615072 5:-0.615385 6:0.105263 7:0.209088 8:-0.759967 9:-0.376329 10:-0.69487 11:-0.412698 12:0.193125 13:-0.806107 14:-0.342166 15:-0.38082 16:-0.65189 17:0.0187651 18:-0.0808837 19:-0.598623 20:-0.465172 21:-0.640761 22:0.027134 23:-0.0316697 24:-0.821477 
-5.84686117489869 1:1 2:-0.241135 3:-0.38821 4:-0.832943 5:-0.846154 6:-0.736842 7:0.266014 8:-0.665351 9:-0.864104 10:-0.968096 11:-0.760684 12:0.258771 13:-0.965042 14:-0.614202 15:-0.736701 16:-0.628989 17:-0.405309 18:0.552603 19:-0.596351 20:-0.494143 21:-0.63264 22:-0.422939 23:0.0869527 24:-0.6132 
-24 1:0.86292 2:-0.418811 3:0.298863 4:-0.470576 5:-0.692308 6:0.421053 7:0.0276696 8:-0.804175 9:-0.42705 10:-0.752944 11:0.114774 12:0.00912715 13:-0.931569 14:-0.58638 15:0.117414 16:-0.179293 17:0.216322 18:-0.156736 19:-0.632702 20:-0.0785426 21:-0.168977 22:0.212883 23:0.46288 24:-0.571544 
24 1:0.886622 2:-0.506909 3:-0.53212 4:-0.526931 5:-1 6:-0.631579 7:0.338216 8:-0.797135 9:-0.569296 10:-0.988317 11:-0.826618 12:0.326827 13:-1 14:-0.626568 15:-0.856577 16:-0.532642 17:0.419024 18:-0.22339 19:-0.795309 20:-0.636612 21:-0.5255 22:0.410305 23:0.090557 24:-0.798756 
-24 1:0.999056 2:-0.554642 3:-0.296982 4:-0.459022 5:-0.461538 6:-0.631579 7:0.270006 8:-0.824181 9:-0.264596 10:-0.672229 11:-0.321123 12:0.267263 13:-0.767646 14:-0.131955 15:-0.490956 16:-0.677703 17:0.0652168 18:-0.382292 19:-0.65315 20:-0.320473 21:-0.67163 22:0.0567991 23:0.250982 24:-0.670003 
-24 1:0.945563 2:-0.558893 3:-0.0795 4:-0.386168 5:-0.461538 6:0.157895 7:0.0433022 8:-0.727401 9:-0.530401 10:-0.716476 11:-0.174603 12:0.0277274 13:-0.759031 14:-0.379262 15:-0.137322 16:-0.316279 17:-0.246721 18:-0.363332 19:-0.541175 20:0.00567366 21:-0.298509 22:-0.247827 23:0.0825086 24:-0.522315 
24 1:0.714172 2:0.184682 3:-0.162282 4:-0.600101 5:0.923077 6:-0.842105 7:-0.0423294 8:-0.408653 9:-0.0926315 10:-0.238525 11:-0.479853 12:-0.0229886 13:-0.105151 14:-0.230878 15:-0.449499 16:0.408293 17:0.470955 18:0.004521 19:-0.24988 20:0.345683 21:0.395178 22:0.468929 23:0.202661 24:-0.56902 
-21.61702037408184 1:0.772305 2:0.203893 3:-0.0671961 4:-0.588311 5:0.923077 6:-0.842105 7:0.00195575 8:-0.791707 9:-0.265517 10:-0.81668 11:-0.493931 12:-0.0073003 13:-0.725645 14:-0.439197 15:-0.463896 16:0.408161 17:0.4073 18:-0.0195483 19:-0.192731 20:0.848602 21:0.413364 22:0.40314 23:0.156585 24:-0.556397 
-24 1:0.914305 2:-0.320942 3:-0.784445 4:-0.766727 5:-0.692308 6:-0.947368 7:-0.27183 8:-0.741942 9:-0.567652 10:-0.98825 11:-0.669423 12:-0.274869 13:-0.986492 14:-0.589472 15:-0.459488 16:-0.135066 17:-0.0433253 18:-0.0119671 19:-0.598623 20:-0.878597 21:-0.129639 22:-0.0374941 23:-0.0399307 24:-0.789018 
24 1:-0.374615 2:-0.38134 3:-0.78934 4:-0.790296 5:-0.538462 6:-0.842105 7:0.11306 8:-0.446929 9:-0.207059 10:-0.741792 11:0.440781 12:0.106964 13:-0.812584 14:-0.346052 15:0.312212 16:-0.270377 17:0.00143553 18:0.0771608 19:-0.7179 20:-0.647768 21:-0.267187 22:-0.00957935 23:0.0613981 24:-0.794428 
-9.739532342581931 1:0.999561 2:-0.965715 3:-0.972808 4:-0.553288 5:-0.769231 6:-0.894737 7:-0.239958 8:-0.950632 9:-0.89528 10:-0.482955 11:-0.606838 12:-0.244049 13:-0.794389 14:-0.369369 15:-0.579364 16:-0.0620846 17:0.394508 18:-0.400098 19:-0.63043 20:-0.129838 21:-0.0671144 22:0.38414 23:0.0596351 24:-0.866919 
-24 1:0.942884 2:-0.421422 3:-0.434643 4:-0.536777 5:-0.615385 6:-0.894737 7:-0.471784 8:-0.69338 9:-0.271803 10:-0.786956 11:-0.462062 12:-0.473176 13:-0.974329 14:-0.595654 15:-0.431303 16:-0.0385359 17:-0.124914 18:0.00372663 19:-0.538038 20:-0.60298 21:-0.047209 22:-0.134042 23:-0.0290814 24:-0.77351 
-24 1:0.858683 2:-0.305508 3:-0.40637 4:-0.575104 5:-0.538462 6:-0.736842 7:0.142362 8:-0.821668 9:-0.618503 10:-0.841261 11:-0.496947 12:0.128167 13:-0.924502 14:-0.437997 15:-0.466981 16:-0.757149 17:-0.399495 18:-0.259598 19:-0.728124 20:-0.866293 21:-0.760952 22:-0.421909 23:-0.419289 24:-0.586692 
-24 1:0.994908 2:-0.451729 3:-0.327999 4:-0.468942 6:-0.736842 7:0.0409227 8:-0.644048 9:-0.587852 10:-0.880082 11:-0.929182 12:0.0325217 13:-0.909599 14:-0.431576 15:-0.909023 16:-0.215854 17:0.202053 18:-0.306876 19:-0.327022 20:-0.621027 21:-0.212568 22:0.195115 23:-0.0459502 24:-0.588856 
-24 1:0.72191 2:0.0723385 3:0.518106 4:-0.292548 5:0.461538 6:-0.736842 7:0.426355 8:-0.426725 9:-0.158827 10:0.259393 11:-0.848596 12:0.435222 13:-0.505436 14:-0.556498 15:-0.826608 16:0.0946482 17:0.342036 18:-0.744731 19:-0.728124 20:-0.637432 21:0.0830397 22:0.329366 23:-0.00414311 24:-0.849878 
-24 1:0.950942 2:-0.601032 3:-0.516387 4:-0.442108 5:-0.615385 6:-0.684211 7:-0.7575 8:-0.475225 9:-0.155884 10:-0.794623 11:-0.391453 12:-0.761034 13:-0.914782 14:-0.502915 15:-0.407043 16:0.340869 17:-0.0824301 18:-0.0747295 19:-0.533305 20:-0.166587 21:0.346922 22:-0.080339 23:-0.12433 24:-0.756259 
-24 1:0.949792 2:-0.172278 3:-0.880742 4:-0.586247 5:-0.769231 6:-0.894737 7:-0.217453 8:-0.622504 9:-0.57958 10:-0.903971 11:-0.734729 12:-0.220283 13:-0.930272 14:-0.478184 15:-0.71872 16:0.202089 17:-0.0447665 18:-0.097654 19:-0.814458 20:-0.511928 21:0.206191 22:-0.0489797 23:-0.0544306 24:-0.815165 
24 1:0.955139 2:-0.162994 3:-0.483771 4:-0.56732 5:-0.923077 6:-0.789474 7:-0.402524 8:-0.621744 9:-0.545644 10:-1 11:-0.657143 12:-0.419623 13:-0.995614 14:-0.682212 15:-0.655785 16:-0.0870937 17:-0.0414435 18:0.261038 19:-0.592427 20:-0.482398 21:-0.0783099 22:-0.0497062 23:0.298849 24:-0.770985 
-24 1:0.549787 2:-0.470691 3:-0.937902 4:-0.379593 5:-0.230769 6:-0.684211 7:-0.798444 8:-0.644859 9:-0.604472 10:-0.845788 11:-0.115995 12:-0.79472 13:-0.8759 14:-0.526762 15:-0.56438 16:0.269142 17:-0.352778 18:0.179767 19:-0.675301 20:0.0516098 21:0.271576 22:-0.352019 23:0.374954 24:-0.723019 
-24 1:-0.436158 2:-0.243452 3:0.471912 4:-0.42149 5:0.538462 6:-0.736842 7:0.326887 8:-0.173141 9:0.0370916 10:-0.0363154 11:-0.798779 12:0.321082 13:-0.247506 14:0.227875 15:-0.775661 16:-0.386976 17:0.583943 18:-0.0808485 19:-0.613228 20:-0.899269 21:-0.375537 22:0.574093 23:-0.0230409 24:-0.620085 
-24 1:0.98574 2:-0.0355916 3:0.580296 4:0.0452986 5:0.384615 6:-0.789474 7:0.185794 8:0.0411939 9:0.422136 10:0.44775 11:-0.915576 12:0.174544 13:0.0953209 14:-0.0371548 15:-0.959328 16:0.214015 17:-0.843471 18:0.246637 19:-0.80418 20:-0.670408 21:0.245713 22:-0.851421 23:0.976975 24:-0.478496 
24 1:0.757313 2:0.20847 3:0.552724 4:-1 5:0.384615 6:-0.789474 7:0.396151 8:-0.439806 9:0.266526 10:-0.136117 11:-0.460317 12:0.395018 13:-0.512191 14:-0.588235 15:-0.466981 16:0.176469 17:-0.0802041 18:-0.30088 19:-0.0579002 20:-0.137877 21:0.175226 22:-0.0875371 23:0.545797 24:-0.484791 
24 1:0.979174 2:0.190765 3:0.0511416 4:-0.973475 5:0.461538 6:-0.842105 7:0.785181 8:-0.402187 9:0.407501 10:0.751518 11:-0.936508 12:0.774589 13:0.527958 14:-0.577107 15:-0.916515 16:-0.211287 17:-0.453645 18:-0.302303 19:-0.445267 20:-0.163716 21:-0.229548 22:-0.465357 23:0.97516 24:-0.737001 
24 1:0.770917 2:0.319106 3:0.261071 4:-0.941763 5:0.384615 6:-0.894737 7:0.302047 8:0.600873 9:0.671699 10:0.466642 11:-0.133578 12:0.294508 13:-0.328529 14:-0.00830242 15:-0.19726 16:-0.471467 17:-0.554054 18:0.249712 19:-0.344165 20:-0.348281 21:-0.450008 22:-0.547571 23:0.903809 24:-0.658101 
-24 1:-0.435644 2:0.0389669 3:-0.0858129 4:-0.549347 5:0.384615 6:-0.894737 7:0.381661 8:-0.90589 9:-0.337696 10:-0.103463 11:-0.762358 12:0.365513 13:-0.471536 14:-0.583289 15:-0.762389 16:-0.968886 17:-0.134415 18:-0.492049 19:-0.757659 20:-0.937166 21:-0.950026 22:-0.116762 23:-0.140961 24:-0.751477 
24 1:0.785361 2:0.163771 3:0.0220979 4:-0.482937 6:-0.789474 7:-0.0400198 8:-0.606632 9:-0.0236041 10:-0.0859959 11:-0.707486 12:-0.0441672 13:-0.43754 14:0.0634164 15:-0.682296 16:0.140264 17:0.747784 18:0.240274 19:-0.251773 20:-0.267072 21:0.141062 22:0.756709 23:0.310466 24:-0.566495 
-24 1:0.628655 2:0.260378 3:0.115331 4:-0.648322 5:0.153846 6:-0.684211 7:-0.227327 8:-1 9:-0.493984 10:-0.808755 11:-0.789988 12:-0.212368 13:-0.847151 14:-0.685921 15:-0.76667 16:0.259731 17:-0.139587 18:0.00904074 19:0.969019 20:0.154966 21:0.253747 22:-0.117578 23:0.608618 24:-0.688937 
11.01348069425349 1:0.663929 2:-0.0507714 3:0.668366 4:-0.66569 5:0.461538 6:-0.368421 7:-0.0573728 8:-0.231218 9:0.285114 10:0.669253 11:-0.431013 12:-0.00214251 13:1 14:0.950009 15:-0.429519 16:0.266332 17:0.390862 18:0.125967 19:-0.400964 20:-0.410623 21:0.22421 22:0.384902 23:0.908378 24:-0.374628 
24 1:0.773758 2:0.68321 3:0.511981 4:-0.414714 5:0.307692 6:-0.736842 7:-0.133197 8:0.104131 9:0.313404 10:0.996033 11:-0.328449 12:-0.112631 13:-0.547694 14:-0.204169 15:-0.384566 16:-0.427091 17:-0.99495 18:-0.114252 19:-0.435751 20:-0.246018 21:-0.420031 22:-0.980216 23:-0.25475 24:-0.569651 
-24 1:0.958171 2:0.222628 3:0.356576 4:-0.844572 5:0.538462 6:-0.894737 7:0.513385 8:-0.66116 9:-0.240509 10:-0.311901 11:-0.961626 12:0.514447 13:-0.468863 14:-0.410175 15:-0.942203 16:0.0935456 17:-0.0606503 18:0.0575313 19:-0.444406 20:0.26349 21:0.121583 22:-0.0610537 23:1 24:-0.598052 
-24 1:0.868472 2:0.132095 3:0.552064 4:-0.934094 5:0.461538 6:-0.842105 7:0.329594 8:-0.419279 9:-0.0961426 10:-0.00256742 11:-0.98779 12:0.332364 13:-0.428322 14:-0.0683625 15:-0.968961 16:0.177882 17:-0.236547 18:-0.0817282 19:-0.144234 20:-0.617335 21:0.172872 22:-0.250149 23:0.748999 24:-0.3923 
-24 1:0.574552 2:0.157519 3:0.392745 4:-0.549884 5:0.153846 6:-0.736842 7:-0.0709653 8:0.634532 9:0.715205 10:0.468858 11:-0.531323 12:-0.0700486 13:-0.163692 14:0.271978 15:-0.541903 16:0.128995 17:-0.212987 18:0.304873 19:0.00344234 20:-0.541732 21:0.118326 22:-0.218958 23:0.187437 24:-0.748264 
7.728961753794279 1:0.773344 2:-0.207548 3:1 4:-0.633471 5:0.230769 6:-0.736842 7:0.0708914 8:-0.29461 9:0.298109 10:-0.464595 11:1 12:0.0812891 13:-0.579979 14:-0.447271 15:1 16:0.269087 17:-0.303475 18:-0.0793048 19:0.653787 20:-0.435026 21:0.260222 22:-0.312385 23:0.34256 24:0.252367 
20.37439953451022 1:0.789103 2:-0.135426 3:0.675924 4:-0.68472 5:0.461538 6:-0.947368 7:0.284039 8:-0.204454 9:0.26175 10:-0.437401 11:-0.870574 12:0.278588 13:-0.709934 14:-0.323618 15:-0.849085 16:0.123193 17:-0.538393 18:-0.160171 19:1 20:-0.563935 21:0.082171 22:-0.495073 23:0.294704 24:1 
-24 1:0.63593 2:0.191359 3:0.506943 4:-0.170205 5:0.307692 6:-0.789474 7:-0.375286 8:1 9:0.84906 10:0.301426 11:-0.570208 12:-0.352457 13:0.0146823 14:0.806571 15:-0.609333 16:0.6404 17:0.628142 18:0.476039 19:0.0250258 20:-0.287169 21:0.633597 22:0.623498 23:0.40342 24:-0.387251 
-24 1:0.738193 2:-0.0927602 3:0.297026 4:-0.213396 5:0.307692 6:-0.894737 7:-0.108953 8:0.342586 9:0.561094 10:-0.149326 11:-0.765079 12:-0.102509 13:-0.279454 14:0.455397 15:-0.816119 16:0.699069 17:0.606329 18:0.188283 19:0.0261618 20:-0.151658 21:0.696627 22:0.576377 23:0.281909 24:-0.606888 
24 1:0.603857 2:-0.101157 3:0.201104 4:-0.355652 5:-0.153846 6:-0.842105 7:-0.886024 8:0.740065 9:1 10:0.253642 11:-0.438339 12:-0.852718 13:-0.120603 14:0.659424 15:-0.437012 16:0.559527 17:0.289411 18:-0.392432 19:0.0944677 20:-0.148839 21:0.557649 22:0.269286 23:0.852421 24:-0.495807 
24 1:0.54501 2:-0.101176 3:-0.165634 4:-0.384053 5:0.538462 6:-0.842105 7:-0.272434 8:-0.709108 9:-0.0508614 10:-0.541072 11:-0.952928 12:-0.264101 13:-0.276938 14:-0.172349 15:-0.933308 16:0.521693 17:0.255423 18:-0.321476 19:-0.609983 20:-1 21:0.496398 22:0.241963 23:0.273367 24:-0.855704 
24 1:0.693022 2:-0.0474821 3:-0.0407826 4:-0.435304 5:0.538462 6:-0.736842 7:-0.0379002 8:-0.199027 9:0.28574 10:-0.533632 11:-0.818531 12:-0.0470553 13:-0.581773 14:-0.166991 15:-0.795861 16:0.151652 17:0.0729439 18:-1 19:-0.856651 20:-0.86051 21:0.193129 22:0.0707283 23:-0.401027 24:-0.858485 
-15.49905086402837 1:-1 2:0.313415 3:0.292911 4:0.422856 5:0.307692 6:-0.842105 7:-0.787558 8:0.610934 9:0.576777 10:0.0699001 11:0.68254 12:-0.777305 13:-0.165051 14:0.266826 15:0.139315 16:1 17:-0.0454406 18:-0.242264 19:0.755806 20:0.786588 21:0.981409 22:-0.0250353 23:0.895355 24:-0.563971 
24 1:0.932943 2:0.281041 3:0.863049 4:-0.714368 5:0.538462 6:-0.157895 7:0.423516 8:0.471077 9:0.461689 10:1 11:-0.787057 12:0.432205 13:0.202354 14:1 15:-0.773209 16:0.306711 17:0.000411708 18:-0.419228 19:-0.645714 20:-0.519147 21:0.317433 22:0.0094228 23:0.459444 24:-0.556397 
-24 1:0.83636 2:0.164258 3:-0.0806804 4:-0.799791 5:0.538462 6:-0.894737 7:0.44608 8:-0.824709 9:0.00633111 10:-0.459492 11:-0.962044 12:0.436811 13:-0.699058 14:-0.618324 15:-0.984445 16:-0.300044 17:-0.318451 18:-0.656138 19:-0.659479 20:-0.732791 21:-0.278572 22:-0.330735 23:0.648946 24:-0.872329 
22.83564289357768 1:0.898063 2:-0.0517098 3:0.00134152 4:-0.76182 5:1 6:-0.842105 7:0.274371 8:-0.923886 9:-0.434221 10:-0.657274 11:-0.699145 12:0.247241 13:-0.729556 14:-0.233528 15:-0.70873 16:0.444617 17:0.195931 18:-0.643243 19:-0.155594 20:-0.801764 21:0.41202 22:0.200655 23:0.590199 24:-0.642844 
5.512862131032867 1:0.880887 2:0.0302326 3:0.663909 4:-0.553442 5:0.538462 6:-0.631579 7:0.417001 8:-0.56314 9:0.239481 10:-0.737985 11:-0.124368 12:0.40499 13:-0.792212 14:-0.450156 15:-0.392058 16:0.338551 17:0.0998228 18:-0.173304 19:-0.787952 20:-0.176157 21:0.348719 22:0.0914307 23:0.664015 24:-0.654855 
24 1:0.860151 2:-0.129388 3:0.579165 4:-0.815416 5:0.615385 6:-0.842105 7:0.56683 8:-0.787296 9:-0.192455 10:-0.803118 11:-0.907204 12:0.548404 13:-0.842774 14:-0.697548 15:-0.886546 16:-0.106054 17:-0.431494 18:0.514772 19:-0.454733 20:-0.119502 21:-0.122008 22:-0.44757 23:0.459721 24:-0.6132 
24 1:0.937613 2:-0.43863 3:-0.168846 4:-0.429262 5:0.769231 6:-0.947368 7:0.243921 8:-0.87065 9:0.181413 10:-0.521686 11:-0.954131 12:0.251534 13:-0.624299 14:-0.213757 15:-0.934538 16:0.996308 17:0.909034 18:-0.108896 19:-0.583477 20:-0.121608 21:1 22:0.889212 23:0.214751 24:-0.905247 
-24 1:0.999994 2:-0.109266 3:0.0106148 4:-0.904153 5:0.384615 6:-0.947368 7:1 8:-0.70745 9:0.165984 10:-0.305014 11:-0.789988 12:1 13:-0.456097 14:-0.473768 15:-0.781655 16:-0.429721 17:-0.264259 18:-0.942323 19:-0.32599 20:-0.62279 21:-0.409286 22:-0.258095 23:0.509163 24:-0.601839 
-24 1:0.85564 2:0.236004 3:0.399307 4:-0.614577 5:0.0769231 6:0.0526316 7:0.148032 8:-0.197659 9:0.539835 10:-0.596589 11:-0.636142 12:0.165608 13:-0.507383 14:-0.335983 15:-0.609333 16:-0.826178 17:-0.382654 18:-0.837356 19:-0.40778 20:-0.00991182 21:-0.803915 22:-0.371735 23:0.579525 24:-0.385989 
24 1:-0.465565 2:-0.307624 3:-0.120169 4:-0.646346 5:0.615385 6:-0.947368 7:0.168747 8:-0.665948 9:0.0668103 10:-0.611175 11:-0.833944 12:0.169079 13:-0.798946 14:-0.317435 15:-0.811624 16:-0.946253 17:-0.572804 18:-0.596994 19:-0.756239 20:0.555759 21:-0.915165 22:-0.561025 23:-0.251173 24:-0.89789 
24 1:0.738571 2:-0.00516521 3:0.393485 4:-0.263815 5:0.461538 6:-0.789474 7:0.317331 8:-0.754395 9:-0.472441 10:-0.949759 11:-1 12:0.316465 13:-0.956612 14:-1 15:-0.981448 16:-0.401202 17:1 18:-0.711963 19:-0.680413 20:-0.164577 21:-0.402081 22:1 23:-0.843649 24:-0.850329 
24 1:0.73692 2:-0.224821 3:0.493261 4:-0.469687 5:0.0769231 6:0.105263 7:0.349142 8:-0.416445 9:0.297782 10:-0.547967 11:-0.516484 12:0.344392 13:-0.644702 14:-0.538951 15:-0.582575 16:0.426595 17:-0.857576 18:-0.0136392 19:-0.705729 20:-0.788161 21:0.41591 22:-0.832691 23:-0.219062 24:-0.839059 
-24 1:0.737412 2:-0.137336 3:0.0913088 4:-0.254748 5:0.615385 6:-0.894737 7:-0.0802933 8:0.0699097 9:0.331497 10:0.0454604 11:-0.390387 12:-0.0971917 13:-0.184024 14:-0.0494625 15:-0.358003 16:0.755318 17:0.810745 18:0.250357 19:0.0432014 20:-0.140748 21:0.751895 22:0.779924 23:0.283198 24:-0.695248 
24 1:0.627907 2:1 3:0.436541 4:-0.586157 5:0.0769231 6:-0.842105 7:-0.284495 8:-0.644322 9:0.0218329 10:-0.515579 11:-0.936508 12:-0.233197 13:-0.619558 14:-0.261791 15:-0.916515 16:-0.301173 17:-0.810345 18:-0.0972391 19:-0.165331 20:-0.963162 21:-0.304975 22:-0.810099 23:0.444957 24:-0.285907 
22.17446836268327 1:0.654914 2:0.426178 3:0.30157 4:-0.531933 5:0.307692 6:-0.631579 7:-0.415318 8:-0.442688 9:0.0914094 10:0.0868818 11:-0.599512 12:-0.403469 13:-0.151869 14:-0.101042 15:-0.601841 16:0.5512 17:0.191125 18:0.237599 19:-0.400964 20:0.199754 21:0.540749 22:0.186907 23:0.860782 24:-0.586692 
-5.710026479375647 1:0.547439 2:0.196618 3:0.359484 4:-0.694355 5:0.461538 6:-0.421053 7:-0.495619 8:-0.473921 9:-0.0792262 10:-0.244955 11:0.711844 12:-0.492668 13:-0.409473 14:-0.175234 15:-0.916515 16:0.639121 17:0.219894 18:0.114648 19:0.304475 20:0.160708 21:0.644093 22:0.213304 23:0.457868 24:-0.264809 
-24 1:0.556676 2:-0.0801878 3:-0.302573 4:-0.538425 5:0.384615 6:-0.894737 7:-0.337506 8:-0.405353 9:0.288931 10:0.00666295 11:-0.962882 12:-0.329485 13:-0.214142 14:-0.198728 15:-0.977951 16:0.15712 17:-0.494705 18:-0.301953 19:-0.746299 20:-0.620206 21:0.153208 22:-0.524551 23:-0.538173 24:-0.881435 
-16.17575876711524 1:0.61339 2:-0.193863 3:-0.420171 4:-0.0530783 5:0.615385 6:-0.947368 7:-0.370843 8:-0.15649 9:-0.0203811 10:0.117913 11:-0.69475 12:-0.321157 13:-0.0426949 14:0.832538 15:-0.673017 16:0.0131015 17:0.381956 18:-0.212851 19:-0.434718 20:-0.525053 21:0.00748482 22:0.40024 23:-1 24:-0.750248 
-24 1:0.561867 2:0.227192 3:-0.0528389 4:-0.566895 5:0.538462 6:-0.947368 7:0.0435018 8:-0.832537 9:0.135255 10:-0.77083 11:-0.995116 12:0.0641343 13:-0.817709 14:-0.706942 15:-0.976453 16:-0.138447 17:-0.0189539 18:-0.217943 19:-0.364329 20:-0.710643 21:-0.12402 22:-0.0250585 23:-0.0230015 24:-0.572176 
-24 1:0.563297 2:0.157765 3:0.47395 4:-0.311583 5:0.230769 6:-0.894737 7:-0.11445 8:-0.295223 9:0.235526 10:0.174188 11:-0.863248 12:-0.115292 13:-0.0840928 14:-0.20968 15:-0.856577 16:0.0487286 17:-0.264248 18:-0.187926 19:-0.31463 20:-0.752847 21:0.0470005 22:-0.276189 23:-0.425035 24:-0.660986 
24 1:-0.603931 2:0.281706 3:-0.124105 4:-0.422705 5:0.769231 6:-0.947368 7:-0.00138031 8:-0.654674 9:-0.340657 10:-0.866807 11:-0.873904 12:-0.00109056 13:-0.892217 14:-0.795972 15:-0.847836 16:-0.344495 17:-0.707374 18:-0.676063 19:-0.749545 20:-0.968829 21:-0.339014 22:-0.726587 23:-0.325811 24:-0.870165 
-11.91761065432334 1:0.534129 2:0.57596 3:0.0997033 4:-0.557093 5:0.230769 6:-0.842105 7:-0.51878 8:-0.222773 9:0.187546 10:0.268728 11:0.0771451 12:-0.486432 13:-0.301209 14:-0.243243 15:-0.242213 16:-0.675848 17:-0.61061 18:-0.607775 19:-0.695992 20:-0.662141 21:-0.689201 22:-0.612012 23:0.553343 24:-0.718691 
-24 1:0.879203 2:-0.500165 3:-0.481932 4:0.906009 5:-0.153846 6:-0.842105 7:0.0803822 8:-0.171766 9:0.372124 10:-0.493532 11:-0.811966 12:0.0742969 13:-0.782603 14:-0.53145 15:-0.798138 16:-0.243136 17:-0.125091 18:0.0466989 19:-0.60836 20:-0.698134 21:-0.249236 22:-0.125705 23:-0.0284633 24:-0.921558 
4.474631597686527 1:0.837407 2:-0.408921 3:-0.792868 4:0.253315 5:0.0769231 6:-0.947368 7:-0.137317 8:-0.0786 9:0.576625 10:-0.500307 11:-0.496947 12:-0.145638 13:-0.685505 14:-0.144321 15:-0.500696 16:0.011172 17:-0.0350974 18:1 19:-0.958158 20:-0.211088 21:0.0302262 22:-0.039113 23:0.116009 24:-0.948336 
-24 1:0.897341 2:-0.734238 3:-0.913182 4:0.158753 5:-0.153846 6:-0.894737 7:0.256812 8:-0.668561 9:0.290556 10:-0.841063 11:-0.8779 12:0.251149 13:-0.952136 14:-0.850411 15:-1 16:-0.363838 17:-0.109001 18:-0.806742 19:-1 20:-0.955158 21:-0.370605 22:-0.112328 23:0.173009 24:-1 
